{"learner":{"attributes":{"scikit_learn":"{\"_estimator_type\": \"classifier\"}"},"feature_names":["Unnamed: 0","Type","Age","Gender","MaturitySize","FurLength","Vaccinated","Dewormed","Sterilized","Health","Quantity","Fee","State","VideoAmt","PhotoAmt","NameorNO","BreedType","ColorAmt","Free","Type_1","Type_2","Gender_1","Gender_2","Gender_3","MaturitySize_1","MaturitySize_2","MaturitySize_3","MaturitySize_4","FurLength_1","FurLength_2","FurLength_3","Vaccinated_1","Vaccinated_2","Vaccinated_3","Dewormed_1","Dewormed_2","Dewormed_3","Sterilized_1","Sterilized_2","Sterilized_3","Health_1","Health_2","Health_3","State_41324","State_41325","State_41326","State_41327","State_41330","State_41332","State_41335","State_41336","State_41342","State_41345","State_41361","State_41367","State_41401","State_41415","NameorNO_0","NameorNO_1","BreedType_0","BreedType_1","ColorAmt_1","Free_0","Free_1"],"feature_types":["int","int","float","int","int","int","int","int","int","int","float","int","int","float","float","int","int","int","int","float","float","float","float","float","float","float","float","float","float","float","float","float","float","float","float","float","float","float","float","float","float","float","float","float","float","float","float","float","float","float","float","float","float","float","float","float","float","float","float","float","float","float","float","float"],"gradient_booster":{"model":{"gbtree_model_param":{"num_parallel_tree":"1","num_trees":"250"},"iteration_indptr":[0,5,10,15,20,25,30,35,40,45,50,55,60,65,70,75,80,85,90,95,100,105,110,115,120,125,130,135,140,145,150,155,160,165,170,175,180,185,190,195,200,205,210,215,220,225,230,235,240,245,250],"tree_info":[0,1,2,3,4,0,1,2,3,4,0,1,2,3,4,0,1,2,3,4,0,1,2,3,4,0,1,2,3,4,0,1,2,3,4,0,1,2,3,4,0,1,2,3,4,0,1,2,3,4,0,1,2,3,4,0,1,2,3,4,0,1,2,3,4,0,1,2,3,4,0,1,2,3,4,0,1,2,3,4,0,1,2,3,4,0,1,2,3,4,0,1,2,3,4,0,1,2,3,4,0,1,2,3,4,0,1,2,3,4,0,1,2,3,4,0,1,2,3,4,0,1,2,3,4,0,1,2,3,4,0,1,2,3,4,0,1,2,3,4,0,1,2,3,4,0,1,2,3,4,0,1,2,3,4,0,1,2,3,4,0,1,2,3,4,0,1,2,3,4,0,1,2,3,4,0,1,2,3,4,0,1,2,3,4,0,1,2,3,4,0,1,2,3,4,0,1,2,3,4,0,1,2,3,4,0,1,2,3,4,0,1,2,3,4,0,1,2,3,4,0,1,2,3,4,0,1,2,3,4,0,1,2,3,4,0,1,2,3,4,0,1,2,3,4,0,1,2,3,4],"trees":[{"base_weights":[-5.4044193E-1,-5.0217974E-1,-5.576698E-1,-5.117251E-1,-3.9509535E-1,-3.5909444E-1,-5.613861E-1,-5.169162E-1,-3.6381513E-1,-1.737242E-1,-5.11058E-1,-3.9231384E-1,1.5789473E-1,-5.803792E-1,-5.3305674E-1,-1.5191129E-1,-1.7267306E-1,-1.5337956E-1,-4.83871E-2,-2.529511E-3,-1.3172805E-1,-1.6074826E-1,-2.4793388E-2,-1.3060686E-1,1.0948905E-2,-1.7686726E-1,-1.6476461E-1,-1.6016918E-1,2.6315792E-2],"categories":[],"categories_nodes":[],"categories_segments":[],"categories_sizes":[],"default_left":[0,0,0,0,0,0,0,0,0,0,0,0,0,0,0,0,0,0,0,0,0,0,0,0,0,0,0,0,0],"id":0,"left_children":[1,3,5,7,9,11,13,15,17,19,21,23,-1,25,27,-1,-1,-1,-1,-1,-1,-1,-1,-1,-1,-1,-1,-1,-1],"loss_changes":[2.2506104E0,1.0263977E0,1.7453613E0,6.5670776E-1,2.5491467E0,1.7135925E0,1.0830688E0,3.64563E-1,1.1323357E0,1.6122311E0,6.658459E-1,9.380007E-1,0E0,1.1608887E-1,5.951843E-1,0E0,0E0,0E0,0E0,0E0,0E0,0E0,0E0,0E0,0E0,0E0,0E0,0E0,0E0],"parents":[2147483647,0,0,1,1,2,2,3,3,4,4,5,5,6,6,7,7,8,8,9,9,10,10,11,11,13,13,14,14],"right_children":[2,4,6,8,10,12,14,16,18,20,22,24,-1,26,28,-1,-1,-1,-1,-1,-1,-1,-1,-1,-1,-1,-1,-1,-1],"split_conditions":[1E0,3E0,3.3333335E-2,1E0,3.137255E-2,1.4526E4,2E0,2E-1,1E0,3E1,4.5E2,2.5E1,1.5789473E-1,4.1336E4,1E0,-1.5191129E-1,-1.7267306E-1,-1.5337956E-1,-4.83871E-2,-2.529511E-3,-1.3172805E-1,-1.6074826E-1,-2.4793388E-2,-1.3060686E-1,1.0948905E-2,-1.7686726E-1,-1.6476461E-1,-1.6016918E-1,2.6315792E-2],"split_indices":[25,5,14,50,2,0,1,14,16,11,11,11,0,12,52,0,0,0,0,0,0,0,0,0,0,0,0,0,0],"split_type":[0,0,0,0,0,0,0,0,0,0,0,0,0,0,0,0,0,0,0,0,0,0,0,0,0,0,0,0,0],"sum_hessian":[3.8380803E3,1.2009601E3,2.63712E3,1.0992001E3,1.0176001E2,5.024E1,2.5868801E3,1.05952E3,3.9680004E1,3.5840004E1,6.5920006E1,4.8960003E1,1.2800001E0,1.5369601E3,1.04992E3,9.0624005E2,1.5328001E2,2.2080002E1,1.76E1,2.2720001E1,1.3120001E1,6.2080006E1,3.8400002E0,4.4480003E1,4.4800005E0,1.1734401E3,3.6352002E2,1.04864E3,1.2800001E0],"tree_param":{"num_deleted":"0","num_feature":"64","num_nodes":"29","size_leaf_vector":"1"}},{"base_weights":[1.8806588E-2,-2.5858167E-1,9.132119E-2,-1.0388918E-1,-3.957483E-1,-1.4977842E-2,2.1140553E-1,-2.3163942E-1,8.200989E-2,-1.6626114E-1,-4.2501873E-1,4.3331283E-1,-7.653994E-2,3.347197E-1,-7.598206E-4,3.746655E-2,-9.590879E-2,1.8791106E-3,1.3150074E-1,-9.283388E-2,7.121662E-2,-6.9536425E-2,-1.3450645E-1,1.6236162E-1,-3.0321047E-2,1.0395822E-2,-6.826776E-2,1.095581E-1,-4.2483658E-2,-1.1574663E-2,9.583633E-2],"categories":[],"categories_nodes":[],"categories_segments":[],"categories_sizes":[],"default_left":[0,0,0,0,0,0,0,0,0,0,0,0,0,0,0,0,0,0,0,0,0,0,0,0,0,0,0,0,0,0,0],"id":1,"left_children":[1,3,5,7,9,11,13,15,17,19,21,23,25,27,29,-1,-1,-1,-1,-1,-1,-1,-1,-1,-1,-1,-1,-1,-1,-1,-1],"loss_changes":[7.724557E1,1.6846382E1,3.8861923E1,8.93424E0,2.7605057E0,4.4623344E1,3.739974E1,7.033388E0,4.1440487E0,2.9239898E0,1.578743E0,1.1311451E1,2.3877712E1,1.3174492E1,6.3881803E0,0E0,0E0,0E0,0E0,0E0,0E0,0E0,0E0,0E0,0E0,0E0,0E0,0E0,0E0,0E0,0E0],"parents":[2147483647,0,0,1,1,2,2,3,3,4,4,5,5,6,6,7,7,8,8,9,9,10,10,11,11,12,12,13,13,14,14],"right_children":[2,4,6,8,10,12,14,16,18,20,22,24,26,28,30,-1,-1,-1,-1,-1,-1,-1,-1,-1,-1,-1,-1,-1,-1,-1,-1],"split_conditions":[2E0,1E0,2E0,2E0,1.5686275E-2,1E0,1.5686275E-2,2E0,1.2195E4,4.1335E4,2E0,2.3921569E-1,1.1764706E-2,2.1052632E-1,3E0,3.746655E-2,-9.590879E-2,1.8791106E-3,1.3150074E-1,-9.283388E-2,7.121662E-2,-6.9536425E-2,-1.3450645E-1,1.6236162E-1,-3.0321047E-2,1.0395822E-2,-6.826776E-2,1.095581E-1,-4.2483658E-2,-1.1574663E-2,9.583633E-2],"split_indices":[8,16,1,5,2,16,2,1,0,12,4,2,2,10,5,0,0,0,0,0,0,0,0,0,0,0,0,0,0,0,0],"split_type":[0,0,0,0,0,0,0,0,0,0,0,0,0,0,0,0,0,0,0,0,0,0,0,0,0,0,0,0,0,0,0],"sum_hessian":[3.8380803E3,7.9488007E2,3.0432002E3,3.7440002E2,4.2048004E2,1.6147201E3,1.4284801E3,2.2176001E2,1.5264001E2,4.8320004E1,3.7216003E2,1.9424002E2,1.4204801E3,9.0304004E2,5.2544006E2,4.3840004E1,1.7792001E2,1.2672001E2,2.5920002E1,3.5840004E1,1.24800005E1,4.1280003E1,3.3088004E2,1.616E2,3.2640003E1,8.1856006E2,6.0192004E2,8.489601E2,5.4080006E1,4.7072003E2,5.4720005E1],"tree_param":{"num_deleted":"0","num_feature":"64","num_nodes":"31","size_leaf_vector":"1"}},{"base_weights":[2.2224073E-1,3.719487E-1,5.301568E-2,1.577287E-2,4.2527488E-1,1.22245245E-1,-2.3293734E-2,-1.9553527E-2,4.12844E-1,2.6474127E-1,4.8777038E-1,2.8647712E-1,5.4071814E-2,-8.004329E-2,2.2987045E-1,-1.4538343E-2,1.7615658E-1,3.4615386E-1,8.910891E-2,-7.559681E-2,8.4083214E-2,-5.7823125E-2,1.49079E-1,1.08317815E-1,3.394625E-2,1.016863E-3,5.2308E-2,-2.7369766E-4,-6.324618E-2,-2.3419203E-3,1.0238717E-1],"categories":[],"categories_nodes":[],"categories_segments":[],"categories_sizes":[],"default_left":[0,0,0,0,0,0,0,0,0,0,0,0,0,0,0,0,0,0,0,0,0,0,0,0,0,0,0,0,0,0,0],"id":2,"left_children":[1,3,5,7,9,11,13,15,17,19,21,23,25,27,29,-1,-1,-1,-1,-1,-1,-1,-1,-1,-1,-1,-1,-1,-1,-1,-1],"loss_changes":[9.7240845E1,3.8679993E1,9.529126E0,3.743207E0,1.7644318E1,1.0572131E1,1.23538685E1,4.334045E0,1.52812E0,4.0733833E0,8.036652E0,3.5419426E0,4.080879E0,7.2657223E0,4.173047E0,0E0,0E0,0E0,0E0,0E0,0E0,0E0,0E0,0E0,0E0,0E0,0E0,0E0,0E0,0E0,0E0],"parents":[2147483647,0,0,1,1,2,2,3,3,4,4,5,5,6,6,7,7,8,8,9,9,10,10,11,11,12,12,13,13,14,14],"right_children":[2,4,6,8,10,12,14,16,18,20,22,24,26,28,30,-1,-1,-1,-1,-1,-1,-1,-1,-1,-1,-1,-1,-1,-1,-1,-1],"split_conditions":[1.5686275E-2,1E0,1E0,3E0,1E0,2E0,2E0,1E0,3.57E2,3.3333335E-2,3.3333335E-2,4.1336E4,1.6666667E-1,5.490196E-2,1E0,-1.4538343E-2,1.7615658E-1,3.4615386E-1,8.910891E-2,-7.559681E-2,8.4083214E-2,-5.7823125E-2,1.49079E-1,1.08317815E-1,3.394625E-2,1.016863E-3,5.2308E-2,-2.7369766E-4,-6.324618E-2,-2.3419203E-3,1.0238717E-1],"split_indices":[2,38,16,4,25,1,1,50,0,14,14,12,14,2,25,0,0,0,0,0,0,0,0,0,0,0,0,0,0,0,0],"split_type":[0,0,0,0,0,0,0,0,0,0,0,0,0,0,0,0,0,0,0,0,0,0,0,0,0,0,0,0,0,0,0],"sum_hessian":[3.8380803E3,2.0358401E3,1.8022401E3,2.6528003E2,1.7705602E3,9.446401E2,8.5760004E2,2.4448001E2,2.0800001E1,4.9760004E2,1.2729601E3,2.7616003E2,6.6848004E2,7.0112006E2,1.5648001E2,2.3424002E2,1.0240001E1,1.6000001E0,1.92E1,1.4080001E1,4.8352002E2,1.6640001E1,1.2563201E3,1.9232E2,8.3840004E1,4.7104004E2,1.9744002E2,4.3744003E2,2.6368002E2,5.024E1,1.06240005E2],"tree_param":{"num_deleted":"0","num_feature":"64","num_nodes":"31","size_leaf_vector":"1"}},{"base_weights":[4.511497E-2,-2.3405133E-2,3.849736E-1,4.3966554E-2,-1.05482295E-1,5.134121E-1,1.5011345E-1,-3.739061E-1,5.6252193E-2,-8.363939E-2,-2.9871196E-1,6.284493E-1,3.763776E-1,2.7539235E-1,-2.9448884E-2,2.8947368E-1,-1.2857142E-1,-2.0408163E-2,2.9843675E-2,-7.715582E-2,-1.916143E-2,2.3385301E-2,-1.0465116E-1,2.1988595E-1,9.3161196E-2,7.481501E-2,2.278481E-1,1.5222482E-2,1.2234795E-1,2.7692307E-2,-8.494209E-2],"categories":[],"categories_nodes":[],"categories_segments":[],"categories_sizes":[],"default_left":[0,0,0,0,0,0,0,0,0,0,0,0,0,0,0,0,0,0,0,0,0,0,0,0,0,0,0,0,0,0,0],"id":3,"left_children":[1,3,5,7,9,11,13,15,17,19,21,23,25,27,29,-1,-1,-1,-1,-1,-1,-1,-1,-1,-1,-1,-1,-1,-1,-1,-1],"loss_changes":[8.941023E1,1.7676823E1,1.9355293E1,9.035427E0,6.057043E0,6.321953E0,5.16315E0,4.093371E0,9.174948E0,4.4298506E0,2.7829628E0,7.2369385E0,9.169588E0,3.9981298E0,2.9630237E0,0E0,0E0,0E0,0E0,0E0,0E0,0E0,0E0,0E0,0E0,0E0,0E0,0E0,0E0,0E0,0E0],"parents":[2147483647,0,0,1,1,2,2,3,3,4,4,5,5,6,6,7,7,8,8,9,9,10,10,11,11,12,12,13,13,14,14],"right_children":[2,4,6,8,10,12,14,16,18,20,22,24,26,28,30,-1,-1,-1,-1,-1,-1,-1,-1,-1,-1,-1,-1,-1,-1,-1,-1],"split_conditions":[2E-1,2E0,2E0,3.3333335E-2,3E0,2E0,2E0,2.29E2,1E0,1.674E3,7.843138E-3,3.529412E-2,4E-1,7.843138E-3,4.1335E4,2.8947368E-1,-1.2857142E-1,-2.0408163E-2,2.9843675E-2,-7.715582E-2,-1.916143E-2,2.3385301E-2,-1.0465116E-1,2.1988595E-1,9.3161196E-2,7.481501E-2,2.278481E-1,1.5222482E-2,1.2234795E-1,2.7692307E-2,-8.494209E-2],"split_indices":[14,1,7,14,7,1,5,0,25,0,2,2,14,2,12,0,0,0,0,0,0,0,0,0,0,0,0,0,0,0,0],"split_type":[0,0,0,0,0,0,0,0,0,0,0,0,0,0,0,0,0,0,0,0,0,0,0,0,0,0,0,0,0,0,0],"sum_hessian":[3.8380803E3,3.1948801E3,6.432001E2,1.7548801E3,1.4400001E3,4.1504004E2,2.2816002E2,4.9280003E1,1.7056001E3,1.29504E3,1.4496E2,2.2368002E2,1.9136002E2,1.3408002E2,9.408001E1,1.2800001E0,4.8000004E1,4.4000003E2,1.2656001E3,1.3120001E2,1.1638401E3,1.6960001E1,1.2800002E2,1.6736002E2,5.6320004E1,1.4496E2,4.64E1,5.024E1,8.3840004E1,6.400001E1,3.0080002E1],"tree_param":{"num_deleted":"0","num_feature":"64","num_nodes":"31","size_leaf_vector":"1"}},{"base_weights":[2.5427964E-1,-4.732821E-2,5.948182E-1,4.9646986E-1,-1.2903881E-1,6.5301263E-1,-2.4377726E-2,5.7296133E-1,4.434796E-1,1.0340478E0,-1.5015739E-1,4.7800195E-1,8.36696E-1,1.128326E-1,-4.5120668E-1,1.0922946E-1,3.7434095E-1,-1.05263166E-1,3.311432E-1,-6.0358547E-2,6.746411E-2,-3.088315E-2,2.0483737E-1,2.8061134E-1,9.372085E-2,-7.042957E-2,8.5800305E-2,9.27835E-2,-1.5664017E-1],"categories":[],"categories_nodes":[],"categories_segments":[],"categories_sizes":[],"default_left":[0,0,0,0,0,0,0,0,0,0,0,0,0,0,0,0,0,0,0,0,0,0,0,0,0,0,0,0,0],"id":4,"left_children":[1,3,5,7,9,11,13,-1,15,17,19,21,23,25,27,-1,-1,-1,-1,-1,-1,-1,-1,-1,-1,-1,-1,-1,-1],"loss_changes":[3.943366E2,9.056914E1,6.499353E1,1.9096458E1,4.3669647E1,5.2589172E1,9.180077E0,0E0,1.6015987E1,3.4519691E0,3.3366825E1,1.0077249E2,4.124652E1,7.215658E0,2.2176423E0,0E0,0E0,0E0,0E0,0E0,0E0,0E0,0E0,0E0,0E0,0E0,0E0,0E0,0E0],"parents":[2147483647,0,0,1,1,2,2,3,3,4,4,5,5,6,6,8,8,9,9,10,10,11,11,12,12,13,13,14,14],"right_children":[2,4,6,8,10,12,14,-1,16,18,20,22,24,26,28,-1,-1,-1,-1,-1,-1,-1,-1,-1,-1,-1,-1,-1,-1],"split_conditions":[1.5686275E-2,1E0,3E0,4.1325E4,3.3333335E-2,1E0,1.882353E-1,5.7296133E-1,1E0,9.08E2,1.5789473E-1,2E0,2E0,3.529412E-2,7.84E2,1.0922946E-1,3.7434095E-1,-1.05263166E-1,3.311432E-1,-6.0358547E-2,6.746411E-2,-3.088315E-2,2.0483737E-1,2.8061134E-1,9.372085E-2,-7.042957E-2,8.5800305E-2,9.27835E-2,-1.5664017E-1],"split_indices":[2,38,5,12,14,16,2,0,46,0,10,1,1,2,0,0,0,0,0,0,0,0,0,0,0,0,0,0,0],"split_type":[0,0,0,0,0,0,0,0,0,0,0,0,0,0,0,0,0,0,0,0,0,0,0,0,0,0,0,0,0],"sum_hessian":[3.8380803E3,2.0358401E3,1.8022401E3,2.6528003E2,1.7705602E3,1.6473601E3,1.5488E2,8.320001E0,2.5696002E2,3.0720001E1,1.7398401E3,8.4544006E2,8.0192004E2,1.1776001E2,3.7120003E1,2.3520001E2,2.1760002E1,1.2800001E0,2.9440002E1,1.5318401E3,2.0800002E2,2.2048001E2,6.2496E2,6.7424005E2,1.2768001E2,3.904E1,7.872001E1,2.88E0,3.424E1],"tree_param":{"num_deleted":"0","num_feature":"64","num_nodes":"29","size_leaf_vector":"1"}},{"base_weights":[-5.054101E-1,-4.6579677E-1,-5.2359456E-1,-4.756112E-1,-3.594617E-1,-3.165339E-1,-5.2764976E-1,-4.81159E-1,-3.2256344E-1,-2.3934591E-1,-1.761947E-1,-3.5305333E-1,1.9881482E-1,-5.487097E-1,-4.9653798E-1,-1.4459854E-1,-5.3735655E-3,-1.4280005E-1,-3.773515E-2,-3.4182597E-2,-1.2730747E-1,-6.657338E-2,-1.5636024E-1,-1.6768315E-1,-1.5428154E-1,-1.4923613E-1,2.8717572E-2],"categories":[],"categories_nodes":[],"categories_segments":[],"categories_sizes":[],"default_left":[0,0,0,0,0,0,0,0,0,0,0,0,0,0,0,0,0,0,0,0,0,0,0,0,0,0,0],"id":5,"left_children":[1,3,5,7,9,11,13,15,17,19,-1,21,-1,23,25,-1,-1,-1,-1,-1,-1,-1,-1,-1,-1,-1,-1],"loss_changes":[2.1826782E0,9.4459534E-1,1.7648926E0,6.730957E-1,2.443532E0,1.9038134E0,1.2051392E0,3.551941E-1,1.0620432E0,1.4252403E0,0E0,8.913574E-1,0E0,1.8319702E-1,5.470276E-1,0E0,0E0,0E0,0E0,0E0,0E0,0E0,0E0,0E0,0E0,0E0,0E0],"parents":[2147483647,0,0,1,1,2,2,3,3,4,4,5,5,6,6,7,7,8,8,9,9,11,11,13,13,14,14],"right_children":[2,4,6,8,10,12,14,16,18,20,-1,22,-1,24,26,-1,-1,-1,-1,-1,-1,-1,-1,-1,-1,-1,-1],"split_conditions":[1E0,3E0,3.3333335E-2,1E0,1.2156863E-1,1.4585E4,2E0,1E0,1E0,3E1,-1.761947E-1,1E0,1.9881482E-1,4.1336E4,1E0,-1.4459854E-1,-5.3735655E-3,-1.4280005E-1,-3.773515E-2,-3.4182597E-2,-1.2730747E-1,-6.657338E-2,-1.5636024E-1,-1.6768315E-1,-1.5428154E-1,-1.4923613E-1,2.8717572E-2],"split_indices":[25,5,14,50,2,0,1,54,16,11,0,32,0,12,52,0,0,0,0,0,0,0,0,0,0,0,0],"split_type":[0,0,0,0,0,0,0,0,0,0,0,0,0,0,0,0,0,0,0,0,0,0,0,0,0,0,0],"sum_hessian":[3.367702E3,1.067929E3,2.299773E3,9.745113E2,9.341768E1,4.5693558E1,2.2540793E3,9.383534E2,3.6157894E1,6.251344E1,3.090424E1,4.4667236E1,1.0263219E0,1.3342638E3,9.1981555E2,9.366224E2,1.7310004E0,1.9519123E1,1.6638771E1,3.822194E1,2.4291498E1,2.639832E1,1.8268917E1,1.01684985E3,3.174139E2,9.185554E2,1.260165E0],"tree_param":{"num_deleted":"0","num_feature":"64","num_nodes":"27","size_leaf_vector":"1"}},{"base_weights":[1.7648399E-2,-2.2530456E-1,7.6584436E-2,-8.7772675E-2,-3.561345E-1,-9.391864E-3,1.6917036E-1,-2.0181279E-1,6.754418E-2,-1.4393824E-1,-3.8506678E-1,3.2544187E-1,-6.0589917E-2,3.0613697E-1,4.7984462E-2,2.8124081E-2,-8.486672E-2,5.509005E-2,-4.1986223E-2,-8.374478E-2,6.12833E-2,-1.3234927E-1,-8.7238304E-2,1.20387144E-1,-3.311348E-2,9.129034E-3,-5.769182E-2,1.04779884E-1,1.1730763E-2,5.776004E-3,1.0639395E-1],"categories":[],"categories_nodes":[],"categories_segments":[],"categories_sizes":[],"default_left":[0,0,0,0,0,0,0,0,0,0,0,0,0,0,0,0,0,0,0,0,0,0,0,0,0,0,0,0,0,0,0],"id":6,"left_children":[1,3,5,7,9,11,13,15,17,19,21,23,25,27,29,-1,-1,-1,-1,-1,-1,-1,-1,-1,-1,-1,-1,-1,-1,-1,-1],"loss_changes":[5.4969418E1,1.3454422E1,2.4593098E1,6.508936E0,2.300682E0,2.7495897E1,2.4675972E1,5.0995464E0,3.7836428E0,2.3002641E0,1.654602E0,7.0762997E0,1.6682896E1,8.026535E0,6.9573345E0,0E0,0E0,0E0,0E0,0E0,0E0,0E0,0E0,0E0,0E0,0E0,0E0,0E0,0E0,0E0,0E0],"parents":[2147483647,0,0,1,1,2,2,3,3,4,4,5,5,6,6,7,7,8,8,9,9,10,10,11,11,12,12,13,13,14,14],"right_children":[2,4,6,8,10,12,14,16,18,20,22,24,26,28,30,-1,-1,-1,-1,-1,-1,-1,-1,-1,-1,-1,-1,-1,-1,-1,-1],"split_conditions":[2E0,1E0,2E0,2E0,1.5686275E-2,1E0,1.1764706E-2,2E0,4.1335E4,4.1335E4,9.827E3,2.6666668E-1,1.1764706E-2,1.5789473E-1,1E0,2.8124081E-2,-8.486672E-2,5.509005E-2,-4.1986223E-2,-8.374478E-2,6.12833E-2,-1.3234927E-1,-8.7238304E-2,1.20387144E-1,-3.311348E-2,9.129034E-3,-5.769182E-2,1.04779884E-1,1.1730763E-2,5.776004E-3,1.0639395E-1],"split_indices":[8,16,1,5,2,16,2,1,12,12,0,2,2,10,26,0,0,0,0,0,0,0,0,0,0,0,0,0,0,0,0],"split_type":[0,0,0,0,0,0,0,0,0,0,0,0,0,0,0,0,0,0,0,0,0,0,0,0,0,0,0,0,0,0,0],"sum_hessian":[3.836794E3,7.4848395E2,3.08831E3,3.6571042E2,3.8277356E2,1.6017789E3,1.486531E3,2.1070364E2,1.5500677E2,4.664475E1,3.3612878E2,2.1172795E2,1.390051E3,6.971137E2,7.894173E2,4.5323307E1,1.6538034E2,9.947076E1,5.553602E1,3.3741417E1,1.290333E1,2.0842464E2,1.27704155E2,1.8040938E2,3.1318575E1,8.224683E2,5.675827E2,5.9991254E2,9.720115E1,7.227644E2,6.665289E1],"tree_param":{"num_deleted":"0","num_feature":"64","num_nodes":"31","size_leaf_vector":"1"}},{"base_weights":[1.7424892E-1,2.7829957E-1,4.776296E-2,1.9585973E-2,3.1351867E-1,6.143333E-2,-2.3541309E-1,5.6925435E-2,-3.5252985E-1,1.8355213E-1,3.52679E-1,1.6631843E-1,2.8039008E-2,-2.6671842E-1,3.4840208E-1,9.121095E-3,1.657669E-1,-1.4886782E-1,9.645868E-2,-7.918936E-3,6.801714E-2,-5.1992077E-2,1.0759459E-1,2.4472713E-2,1.0150064E-1,2.9214917E-2,-1.7023792E-2,-1.15081325E-1,-4.143992E-3],"categories":[],"categories_nodes":[],"categories_segments":[],"categories_sizes":[],"default_left":[0,0,0,0,0,0,0,0,0,0,0,0,0,0,0,0,0,0,0,0,0,0,0,0,0,0,0,0,0],"id":7,"left_children":[1,3,5,7,9,11,13,15,17,19,21,23,25,27,-1,-1,-1,-1,-1,-1,-1,-1,-1,-1,-1,-1,-1,-1,-1],"loss_changes":[5.2807846E1,2.0056091E1,7.0314627E0,3.7006052E0,9.798462E0,6.0546703E0,3.9688716E0,3.1589642E0,2.5127676E0,4.091977E0,4.734741E0,6.0595875E0,7.727367E0,2.4382787E0,0E0,0E0,0E0,0E0,0E0,0E0,0E0,0E0,0E0,0E0,0E0,0E0,0E0,0E0,0E0],"parents":[2147483647,0,0,1,1,2,2,3,3,4,4,5,5,6,6,7,7,8,8,9,9,10,10,11,11,12,12,13,13],"right_children":[2,4,6,8,10,12,14,16,18,20,22,24,26,28,-1,-1,-1,-1,-1,-1,-1,-1,-1,-1,-1,-1,-1,-1,-1],"split_conditions":[1.5686275E-2,1E0,1E0,4.5E1,2E0,2.3529412E-2,3.2E2,1E0,2.2E2,1E0,3.3333335E-2,1.6666667E-1,1E0,8.627451E-2,3.4840208E-1,9.121095E-3,1.657669E-1,-1.4886782E-1,9.645868E-2,-7.918936E-3,6.801714E-2,-5.1992077E-2,1.0759459E-1,2.4472713E-2,1.0150064E-1,2.9214917E-2,-1.7023792E-2,-1.15081325E-1,-4.143992E-3],"split_indices":[2,38,46,11,4,2,11,50,11,15,14,14,16,2,0,0,0,0,0,0,0,0,0,0,0,0,0,0,0],"split_type":[0,0,0,0,0,0,0,0,0,0,0,0,0,0,0,0,0,0,0,0,0,0,0,0,0,0,0,0,0],"sum_hessian":[4.0124749E3,2.2008215E3,1.8116533E3,2.6388965E2,1.9369319E3,1.7289701E3,8.268326E1,2.4059453E2,2.3295115E1,4.4980197E2,1.4871299E3,4.1658304E2,1.3123871E3,8.166202E1,1.0212412E0,2.2938141E2,1.1213124E1,1.9419153E1,3.875961E0,7.678358E1,3.730184E2,1.637394E1,1.470756E3,2.800788E2,1.3650421E2,7.218505E2,5.9053656E2,5.549631E1,2.6165703E1],"tree_param":{"num_deleted":"0","num_feature":"64","num_nodes":"29","size_leaf_vector":"1"}},{"base_weights":[3.991546E-2,-1.7773865E-2,3.063069E-1,3.6505856E-2,-8.624623E-2,3.98002E-1,1.2751864E-1,6.378434E-2,-1.1609979E-1,-6.698586E-2,-2.642143E-1,4.0843445E-1,-3.8674787E-1,1.03489496E-1,7.703608E-1,1.133297E-2,1.09153114E-1,-1.6880202E-1,-2.8778847E-2,-6.787633E-2,-1.4843743E-2,2.2457357E-2,-9.392015E-2,1.17525786E-1,2.8155163E-1,-1.5704915E-1,5.2402448E-2,7.312019E-2,-4.9400865E-3,3.693776E-1,4.392146E-2],"categories":[],"categories_nodes":[],"categories_segments":[],"categories_sizes":[],"default_left":[0,0,0,0,0,0,0,0,0,0,0,0,0,0,0,0,0,0,0,0,0,0,0,0,0,0,0,0,0,0,0],"id":8,"left_children":[1,3,5,7,9,11,13,15,17,19,21,23,25,27,29,-1,-1,-1,-1,-1,-1,-1,-1,-1,-1,-1,-1,-1,-1,-1,-1],"loss_changes":[5.930034E1,1.1794156E1,1.1209908E1,7.3770695E0,4.7918644E0,3.8711166E0,3.53989E0,1.1711761E1,2.3674026E0,3.5227962E0,2.287547E0,3.5945663E0,5.8771205E-1,3.8235161E0,2.2032533E0,0E0,0E0,0E0,0E0,0E0,0E0,0E0,0E0,0E0,0E0,0E0,0E0,0E0,0E0,0E0,0E0],"parents":[2147483647,0,0,1,1,2,2,3,3,4,4,5,5,6,6,7,7,8,8,9,9,10,10,11,11,12,12,13,13,14,14],"right_children":[2,4,6,8,10,12,14,16,18,20,22,24,26,28,30,-1,-1,-1,-1,-1,-1,-1,-1,-1,-1,-1,-1,-1,-1,-1,-1],"split_conditions":[2E-1,2E0,2E0,3E0,3E0,1E0,2E0,3E0,4.1326E4,1.674E3,7.843138E-3,8.333333E-1,5.6666666E-1,2E0,2.6666668E-1,1.133297E-2,1.09153114E-1,-1.6880202E-1,-2.8778847E-2,-6.787633E-2,-1.4843743E-2,2.2457357E-2,-9.392015E-2,1.17525786E-1,2.8155163E-1,-1.5704915E-1,5.2402448E-2,7.312019E-2,-4.9400865E-3,3.693776E-1,4.392146E-2],"split_indices":[14,1,7,8,7,48,9,6,12,0,2,14,14,1,14,0,0,0,0,0,0,0,0,0,0,0,0,0,0,0,0],"split_type":[0,0,0,0,0,0,0,0,0,0,0,0,0,0,0,0,0,0,0,0,0,0,0,0,0,0,0,0,0,0,0],"sum_hessian":[3.8573499E3,3.1714736E3,6.858762E2,1.7693408E3,1.4021329E3,4.5255063E2,2.3332558E2,1.5015233E3,2.6781747E2,1.2664493E3,1.3568349E2,4.470866E2,5.464027E0,2.260374E2,7.288185E0,1.3827948E3,1.1872844E2,1.0411397E1,2.574061E2,1.2424035E2,1.142209E3,1.702009E1,1.1866341E2,4.3513165E2,1.1954946E1,4.448122E0,1.0159051E0,1.0373086E2,1.2230653E2,3.6320138E0,3.6561713E0],"tree_param":{"num_deleted":"0","num_feature":"64","num_nodes":"31","size_leaf_vector":"1"}},{"base_weights":[1.9321287E-1,-3.7832282E-2,4.2070344E-1,3.6562538E-1,-1.06931046E-1,4.579103E-1,-2.9438164E-2,7.3001784E-1,2.3720562E-1,-1.7114046E-1,1.4960055E-1,2.4829863E-1,5.293373E-1,8.607951E-2,-4.2561918E-1,4.4599536E-1,1.8312512E-1,5.57221E-2,3.163677E-1,-2.3201976E-2,-1.1127432E-1,8.6907715E-2,-8.34456E-2,5.816488E-2,2.681386E-1,9.536036E-2,1.8712743E-1,-6.2961124E-2,6.5792255E-2,1.5953775E-1,-1.4298955E-1],"categories":[],"categories_nodes":[],"categories_segments":[],"categories_sizes":[],"default_left":[0,0,0,0,0,0,0,0,0,0,0,0,0,0,0,0,0,0,0,0,0,0,0,0,0,0,0,0,0,0,0],"id":9,"left_children":[1,3,5,7,9,11,13,15,17,19,21,23,25,27,29,-1,-1,-1,-1,-1,-1,-1,-1,-1,-1,-1,-1,-1,-1,-1,-1],"loss_changes":[2.1260916E2,5.6007927E1,3.414868E1,1.3574551E1,2.8271664E1,2.8054474E1,7.2008824E0,5.9768257E0,9.004235E0,2.5680973E1,2.0684143E1,1.6699017E1,2.782022E1,4.85765E0,1.9876771E0,0E0,0E0,0E0,0E0,0E0,0E0,0E0,0E0,0E0,0E0,0E0,0E0,0E0,0E0,0E0,0E0],"parents":[2147483647,0,0,1,1,2,2,3,3,4,4,5,5,6,6,7,7,8,8,9,9,10,10,11,11,12,12,13,13,14,14],"right_children":[2,4,6,8,10,12,14,16,18,20,22,24,26,28,30,-1,-1,-1,-1,-1,-1,-1,-1,-1,-1,-1,-1,-1,-1,-1,-1],"split_conditions":[1.5686275E-2,1E0,3E0,6.666667E-2,1.0526316E-1,2.3529412E-2,1.882353E-1,3.3333335E-2,4E-1,1.6666667E-1,2.3333333E-1,1.0526316E-1,1E0,3.529412E-2,3.3333335E-2,4.4599536E-1,1.8312512E-1,5.57221E-2,3.163677E-1,-2.3201976E-2,-1.1127432E-1,8.6907715E-2,-8.34456E-2,5.816488E-2,2.681386E-1,9.536036E-2,1.8712743E-1,-6.2961124E-2,6.5792255E-2,1.5953775E-1,-1.4298955E-1],"split_indices":[2,38,5,14,10,2,2,14,14,14,14,10,25,2,14,0,0,0,0,0,0,0,0,0,0,0,0,0,0,0,0],"split_type":[0,0,0,0,0,0,0,0,0,0,0,0,0,0,0,0,0,0,0,0,0,0,0,0,0,0,0,0,0,0,0],"sum_hessian":[4.043727E3,2.0066036E3,2.0371235E3,2.927847E2,1.713819E3,1.8815824E3,1.5554108E2,7.507473E1,2.1770998E2,1.3709943E3,3.4282465E2,4.793485E2,1.4022339E3,1.21033195E2,3.450789E1,8.687117E0,6.638761E1,2.0596826E2,1.1741714E1,9.3388916E2,4.3710513E2,2.5849014E2,8.4334496E1,4.4328012E2,3.606838E1,4.3418314E2,9.680507E2,3.7393272E1,8.3639915E1,1.2688694E0,3.323902E1],"tree_param":{"num_deleted":"0","num_feature":"64","num_nodes":"31","size_leaf_vector":"1"}},{"base_weights":[-4.7496244E-1,-4.3311265E-1,-4.9457532E-1,-4.6153486E-1,-3.898211E-1,-2.7631706E-1,-4.990556E-1,2.9001307E-2,-4.643672E-1,-3.1147173E-1,-4.2129388E-1,-3.1379232E-1,1.7500389E-1,-5.228784E-1,-4.6414888E-1,-1.1675788E-1,1.731798E-1,-1.4139722E-1,-8.996518E-2,-6.609769E-2,-1.4757206E-1,-1.2729529E-1,5.3824395E-2,-5.3982932E-2,-1.4825374E-1,-1.6033848E-1,-1.4527944E-1,-1.4153658E-1,-1.02785185E-1],"categories":[],"categories_nodes":[],"categories_segments":[],"categories_sizes":[],"default_left":[0,0,0,0,0,0,0,0,0,0,0,0,0,0,0,0,0,0,0,0,0,0,0,0,0,0,0,0,0],"id":10,"left_children":[1,3,5,7,9,11,13,15,17,19,21,23,-1,25,27,-1,-1,-1,-1,-1,-1,-1,-1,-1,-1,-1,-1,-1,-1],"loss_changes":[2.2161865E0,9.9256897E-1,1.8267517E0,8.051529E-1,8.159332E-1,1.5571609E0,1.3933716E0,1.1904985E0,5.070114E-1,1.7650194E0,5.687103E-1,9.135957E-1,0E0,2.6068115E-1,5.8758545E-1,0E0,0E0,0E0,0E0,0E0,0E0,0E0,0E0,0E0,0E0,0E0,0E0,0E0,0E0],"parents":[2147483647,0,0,1,1,2,2,3,3,4,4,5,5,6,6,7,7,8,8,9,9,10,10,11,11,13,13,14,14],"right_children":[2,4,6,8,10,12,14,16,18,20,22,24,-1,26,28,-1,-1,-1,-1,-1,-1,-1,-1,-1,-1,-1,-1,-1,-1],"split_conditions":[1E0,2E0,3.3333335E-2,4.1325E4,1.1764706E-2,1.4585E4,2E0,1.3333334E-1,1E0,3E0,8E2,1E0,1.7500389E-1,4.1336E4,3E0,-1.1675788E-1,1.731798E-1,-1.4139722E-1,-8.996518E-2,-6.609769E-2,-1.4757206E-1,-1.2729529E-1,5.3824395E-2,-5.3982932E-2,-1.4825374E-1,-1.6033848E-1,-1.4527944E-1,-1.4153658E-1,-1.02785185E-1],"split_indices":[25,5,14,12,2,0,1,14,50,3,11,32,0,12,5,0,0,0,0,0,0,0,0,0,0,0,0,0,0],"split_type":[0,0,0,0,0,0,0,0,0,0,0,0,0,0,0,0,0,0,0,0,0,0,0,0,0,0,0,0,0],"sum_hessian":[2.9600276E3,9.519168E2,2.0081108E3,5.68813E2,3.8310388E2,4.165292E1,1.9664579E3,3.2124305E0,5.656005E2,1.12912384E2,2.7019147E2,4.052145E1,1.1314672E0,1.1604833E3,8.059747E2,1.9869794E0,1.2254511E0,5.408594E2,2.4741152E1,7.649322E1,3.641917E1,2.6913043E2,1.061056E0,2.4407976E1,1.6113476E1,8.828181E2,2.776651E2,7.555945E2,5.0380203E1],"tree_param":{"num_deleted":"0","num_feature":"64","num_nodes":"29","size_leaf_vector":"1"}},{"base_weights":[1.6912961E-2,-1.9387443E-1,6.462806E-2,-6.806141E-2,-3.2067093E-1,-5.5013336E-3,1.3747424E-1,-1.7013331E-1,6.291021E-2,-1.20256E-1,-3.495757E-1,2.6559445E-1,-4.9627822E-2,1.9718541E-1,-4.4318635E-2,2.672491E-2,-7.4088745E-2,-8.623512E-2,3.6006037E-2,-7.446343E-2,5.5002566E-2,-1.1174513E-1,-3.1813547E-2,1.6386253E-1,5.5055548E-2,8.038016E-3,-4.9713936E-2,6.184559E-2,-1.4322709E-1,-2.5864748E-2,6.543085E-2],"categories":[],"categories_nodes":[],"categories_segments":[],"categories_sizes":[],"default_left":[0,0,0,0,0,0,0,0,0,0,0,0,0,0,0,0,0,0,0,0,0,0,0,0,0,0,0,0,0,0,0],"id":11,"left_children":[1,3,5,7,9,11,13,15,17,19,21,23,25,27,29,-1,-1,-1,-1,-1,-1,-1,-1,-1,-1,-1,-1,-1,-1,-1,-1],"loss_changes":[3.851352E1,1.1254015E1,1.5950823E1,4.7707157E0,1.9957504E0,1.9053984E1,1.6632809E1,4.0126076E0,3.1695826E0,1.8271697E0,1.6726723E0,5.035199E0,1.2155867E1,7.072769E0,4.190913E0,0E0,0E0,0E0,0E0,0E0,0E0,0E0,0E0,0E0,0E0,0E0,0E0,0E0,0E0,0E0,0E0],"parents":[2147483647,0,0,1,1,2,2,3,3,4,4,5,5,6,6,7,7,8,8,9,9,10,10,11,11,12,12,13,13,14,14],"right_children":[2,4,6,8,10,12,14,16,18,20,22,24,26,28,30,-1,-1,-1,-1,-1,-1,-1,-1,-1,-1,-1,-1,-1,-1,-1,-1],"split_conditions":[2E0,1E0,2E0,2E0,1.5686275E-2,1E0,1.9607844E-2,2E0,2.093E3,4.1335E4,2E-1,3.137255E-2,1.1764706E-2,1E0,3E0,2.672491E-2,-7.4088745E-2,-8.623512E-2,3.6006037E-2,-7.446343E-2,5.5002566E-2,-1.1174513E-1,-3.1813547E-2,1.6386253E-1,5.5055548E-2,8.038016E-3,-4.9713936E-2,6.184559E-2,-1.4322709E-1,-2.5864748E-2,6.543085E-2],"split_indices":[8,16,1,5,2,16,2,1,0,12,2,2,2,47,5,0,0,0,0,0,0,0,0,0,0,0,0,0,0,0,0],"split_type":[0,0,0,0,0,0,0,0,0,0,0,0,0,0,0,0,0,0,0,0,0,0,0,0,0,0,0,0,0,0,0],"sum_hessian":[3.8269958E3,7.0583185E2,3.1211638E3,3.550613E2,3.5077057E2,1.5907069E3,1.530457E3,1.9937819E2,1.5568312E2,4.4863583E1,3.0590698E2,2.2197302E2,1.3687339E3,1.1519922E3,3.7846475E2,4.554683E1,1.5383136E2,2.1254812E1,1.344283E2,3.1689886E1,1.3173696E1,2.7912152E2,2.6785477E1,4.895234E1,1.7302069E2,8.2583795E2,5.42896E2,1.1375668E3,1.4425528E1,3.2693848E2,5.152626E1],"tree_param":{"num_deleted":"0","num_feature":"64","num_nodes":"31","size_leaf_vector":"1"}},{"base_weights":[1.3896765E-1,9.8111E-3,1.9580811E-1,4.249071E-2,-1.446137E-1,2.3735248E-1,9.063588E-2,1.7836298E-1,2.8040484E-3,-2.7697477E-1,2.3094886E-3,2.64689E-1,1.2652496E-1,1.404849E-1,-1.5197712E-2,4.6364196E-2,2.968312E-1,3.1132951E-2,-1.6573371E-2,-1.4447206E-2,-1.02610104E-1,2.8831532E-2,-4.4490762E-2,-6.274919E-2,8.1001684E-2,1.3670585E-1,2.7202122E-2,3.309992E-2,1.2738642E-1,2.3448644E-3,-1.6609111E-1],"categories":[],"categories_nodes":[],"categories_segments":[],"categories_sizes":[],"default_left":[0,0,0,0,0,0,0,0,0,0,0,0,0,0,0,0,0,0,0,0,0,0,0,0,0,0,0,0,0,0,0],"id":12,"left_children":[1,3,5,7,9,11,13,15,17,19,21,23,25,27,29,-1,-1,-1,-1,-1,-1,-1,-1,-1,-1,-1,-1,-1,-1,-1,-1],"loss_changes":[3.0399963E1,6.3980923E0,1.25429E1,5.640663E0,4.307178E0,6.209778E0,4.3064504E0,4.414902E0,4.757341E0,1.7179241E0,1.5108957E0,4.218567E0,4.7928004E0,4.705678E0,3.2526972E0,0E0,0E0,0E0,0E0,0E0,0E0,0E0,0E0,0E0,0E0,0E0,0E0,0E0,0E0,0E0,0E0],"parents":[2147483647,0,0,1,1,2,2,3,3,4,4,5,5,6,6,7,7,8,8,9,9,10,10,11,11,12,12,13,13,14,14],"right_children":[2,4,6,8,10,12,14,16,18,20,22,24,26,28,30,-1,-1,-1,-1,-1,-1,-1,-1,-1,-1,-1,-1,-1,-1,-1,-1],"split_conditions":[1E0,5.263158E-2,1.5686275E-2,2E0,1E0,3E0,1E0,1.4636E4,3.529412E-2,1E0,8.931E3,3.3333335E-2,1.33E3,2.3333333E-1,1E0,4.6364196E-2,2.968312E-1,3.1132951E-2,-1.6573371E-2,-1.4447206E-2,-1.02610104E-1,2.8831532E-2,-4.4490762E-2,-6.274919E-2,8.1001684E-2,1.3670585E-1,2.7202122E-2,3.309992E-2,1.2738642E-1,2.3448644E-3,-1.6609111E-1],"split_indices":[38,10,2,4,45,3,35,0,2,15,0,14,0,14,46,0,0,0,0,0,0,0,0,0,0,0,0,0,0,0,0],"split_type":[0,0,0,0,0,0,0,0,0,0,0,0,0,0,0,0,0,0,0,0,0,0,0,0,0,0,0,0,0,0,0],"sum_hessian":[4.140203E3,1.2655994E3,2.8746038E3,1.0451483E3,2.2045103E2,2.0597283E3,8.148755E2,2.3547519E2,8.0967316E2,1.1550712E2,1.04943924E2,1.6510859E3,4.0864224E2,5.5373267E2,2.6114282E2,2.2991473E2,5.5604634E0,2.9527332E2,5.1439984E2,2.5956436E1,8.955068E1,6.4892914E1,4.005101E1,1.7894169E1,1.6331918E3,3.898631E1,3.696559E2,5.0186438E2,5.186828E1,2.5138368E2,9.759135E0],"tree_param":{"num_deleted":"0","num_feature":"64","num_nodes":"31","size_leaf_vector":"1"}},{"base_weights":[3.582362E-2,-1.2237536E-2,2.4543655E-1,2.2688016E-2,-8.696899E-2,3.1442836E-1,1.0522871E-1,-6.1557185E-2,5.7741042E-2,-4.515825E-1,-7.59694E-2,2.9907736E-1,7.736006E-1,2.0200932E-1,-4.0878832E-2,-3.193161E-2,6.452295E-3,3.2254495E-2,-1.1041919E-2,-1.5318885E-1,1.9013826E-2,-6.1720903E-3,-4.075535E-2,9.5037475E-2,-3.0225148E-2,2.9615948E-2,2.9744378E-1,1.2558688E-1,2.8989041E-2,6.3118213E-3,-1.2897424E-1],"categories":[],"categories_nodes":[],"categories_segments":[],"categories_sizes":[],"default_left":[0,0,0,0,0,0,0,0,0,0,0,0,0,0,0,0,0,0,0,0,0,0,0,0,0,0,0,0,0,0,0],"id":13,"left_children":[1,3,5,7,9,11,13,15,17,19,21,23,25,27,29,-1,-1,-1,-1,-1,-1,-1,-1,-1,-1,-1,-1,-1,-1,-1,-1],"loss_changes":[3.898114E1,8.219369E0,6.948124E0,6.342044E0,3.9881663E0,3.1745415E0,3.39508E0,2.3553035E0,7.1394787E0,9.192977E-1,3.2307825E0,3.35503E0,2.1079302E0,3.2521963E0,2.3279843E0,0E0,0E0,0E0,0E0,0E0,0E0,0E0,0E0,0E0,0E0,0E0,0E0,0E0,0E0,0E0,0E0],"parents":[2147483647,0,0,1,1,2,2,3,3,4,4,5,5,6,6,7,7,8,8,9,9,10,10,11,11,12,12,13,13,14,14],"right_children":[2,4,6,8,10,12,14,16,18,20,22,24,26,28,30,-1,-1,-1,-1,-1,-1,-1,-1,-1,-1,-1,-1,-1,-1,-1,-1],"split_conditions":[2E-1,4.1332E4,2E0,1E0,3.3333335E-2,1E0,2E0,1.3333334E-1,2E0,1E0,2E0,1.4287E4,2.3333333E-1,1E0,1.3074E4,-3.193161E-2,6.452295E-3,3.2254495E-2,-1.1041919E-2,-1.5318885E-1,1.9013826E-2,-6.1720903E-3,-4.075535E-2,9.5037475E-2,-3.0225148E-2,2.9615948E-2,2.9744378E-1,1.2558688E-1,2.8989041E-2,6.3118213E-3,-1.2897424E-1],"split_indices":[14,12,7,25,14,47,5,14,1,11,7,0,14,45,0,0,0,0,0,0,0,0,0,0,0,0,0,0,0,0,0],"split_type":[0,0,0,0,0,0,0,0,0,0,0,0,0,0,0,0,0,0,0,0,0,0,0,0,0,0,0,0,0,0,0],"sum_hessian":[3.8680898E3,3.1473828E3,7.207069E2,2.1454219E3,1.00196094E3,4.8219263E2,2.3851428E2,6.3016046E2,1.5152615E3,2.8168816E1,9.737922E2,4.6819144E2,1.4001212E1,1.4324632E2,9.526797E1,4.0892764E2,2.2123279E2,9.925842E2,5.226772E2,2.5278702E1,2.890113E0,5.0654144E2,4.672507E2,4.4852728E2,1.966414E1,3.771636E0,1.0229576E1,4.5907665E1,9.733865E1,8.300322E1,1.2264741E1],"tree_param":{"num_deleted":"0","num_feature":"64","num_nodes":"31","size_leaf_vector":"1"}},{"base_weights":[1.5028426E-1,-9.132372E-2,2.8280637E-1,2.6410815E-1,-1.4989018E-1,9.7581613E-1,2.6371694E-1,1.6224007E-1,6.6572237E-1,-2.0251586E-1,1.298462E-1,1.2481692E0,7.4755055E-1,3.7361732E-1,1.5519851E-1,3.1188756E-1,3.41419E-2,1.4556082E-1,3.0571485E-1,-3.897024E-2,-1.0788112E-1,7.416654E-2,-6.849029E-2,3.8825008E-1,1.6894647E-1,2.4787533E-1,-7.599627E-2,2.6154261E-2,1.3237199E-1,7.4338116E-2,7.177578E-3],"categories":[],"categories_nodes":[],"categories_segments":[],"categories_sizes":[],"default_left":[0,0,0,0,0,0,0,0,0,0,0,0,0,0,0,0,0,0,0,0,0,0,0,0,0,0,0,0,0,0,0],"id":14,"left_children":[1,3,5,7,9,11,13,15,17,19,21,23,25,27,29,-1,-1,-1,-1,-1,-1,-1,-1,-1,-1,-1,-1,-1,-1,-1,-1],"loss_changes":[1.3372382E2,3.0844383E1,3.541948E1,8.471474E0,1.8738943E1,3.5383835E0,3.125911E1,7.046356E0,2.1912613E0,1.2161556E1,8.542907E0,2.5748062E-1,3.4878712E0,2.521817E1,1.6075125E1,0E0,0E0,0E0,0E0,0E0,0E0,0E0,0E0,0E0,0E0,0E0,0E0,0E0,0E0,0E0,0E0],"parents":[2147483647,0,0,1,1,2,2,3,3,4,4,5,5,6,6,7,7,8,8,9,9,10,10,11,11,12,12,13,13,14,14],"right_children":[2,4,6,8,10,12,14,16,18,20,22,24,26,28,30,-1,-1,-1,-1,-1,-1,-1,-1,-1,-1,-1,-1,-1,-1,-1,-1],"split_conditions":[1.1764706E-2,1E0,3.3333335E-2,1.5789473E-1,1.5789473E-1,1E0,1E0,4.1326E4,1.1611E4,1.6666667E-1,2.3333333E-1,1.3715E4,1.5789473E-1,2E0,1.3333334E-1,3.1188756E-1,3.41419E-2,1.4556082E-1,3.0571485E-1,-3.897024E-2,-1.0788112E-1,7.416654E-2,-6.849029E-2,3.8825008E-1,1.6894647E-1,2.4787533E-1,-7.599627E-2,2.6154261E-2,1.3237199E-1,7.4338116E-2,7.177578E-3],"split_indices":[2,38,14,10,10,45,38,12,0,14,14,0,10,4,14,0,0,0,0,0,0,0,0,0,0,0,0,0,0,0,0],"split_type":[0,0,0,0,0,0,0,0,0,0,0,0,0,0,0,0,0,0,0,0,0,0,0,0,0,0,0,0,0,0,0],"sum_hessian":[4.174661E3,1.4788335E3,2.6958274E3,2.087074E2,1.2701261E3,7.0924324E1,2.624903E3,1.6760016E2,4.1107246E1,1.0692488E3,2.0087737E2,3.0301868E1,4.0622456E1,1.3029336E3,1.3219695E3,7.697307E0,1.5990285E2,2.8777609E1,1.2329639E1,7.3248083E2,3.3676788E2,1.5152711E2,4.935026E1,2.756187E1,2.739997E0,3.7822838E1,2.7996187E0,2.4928773E2,1.0536459E3,7.746635E2,5.47306E2],"tree_param":{"num_deleted":"0","num_feature":"64","num_nodes":"31","size_leaf_vector":"1"}},{"base_weights":[-4.4707623E-1,-4.5475963E-1,-3.2047686E-1,-4.0215254E-1,-4.7063544E-1,-2.5101337E-1,-5.121781E-1,-4.1122022E-1,-1.6343504E-1,-2.3098505E-1,-4.7578728E-1,-1.7443337E-1,-4.8535052E-1,-1.6849001E-1,4.9632147E-2,-1.24871194E-1,-1.5043198E-2,-1.16549246E-1,4.7363278E-2,-2.4295593E-2,-1.4262539E-1,-1.4933063E-1,-1.3260654E-1,-1.9667396E-2,-1.10098794E-1,-2.1408632E-2,-1.5505894E-1,-1.1075132E-1,1.5950504E-1],"categories":[],"categories_nodes":[],"categories_segments":[],"categories_sizes":[],"default_left":[0,0,0,0,0,0,0,0,0,0,0,0,0,0,0,0,0,0,0,0,0,0,0,0,0,0,0,0,0],"id":15,"left_children":[1,3,5,7,9,11,13,15,17,19,21,23,25,-1,27,-1,-1,-1,-1,-1,-1,-1,-1,-1,-1,-1,-1,-1,-1],"loss_changes":[2.3936157E0,1.8642273E0,1.9055872E0,1.1814957E0,2.2148743E0,1.9627213E0,1.1300449E0,9.847183E-1,1.707969E0,1.4856343E0,1.1473694E0,1.811439E0,3.2239056E-1,0E0,1.0297114E0,0E0,0E0,0E0,0E0,0E0,0E0,0E0,0E0,0E0,0E0,0E0,0E0,0E0,0E0],"parents":[2147483647,0,0,1,1,2,2,3,3,4,4,5,5,6,6,7,7,8,8,9,9,10,10,11,11,12,12,14,14],"right_children":[2,4,6,8,10,12,14,16,18,20,22,24,26,-1,28,-1,-1,-1,-1,-1,-1,-1,-1,-1,-1,-1,-1,-1,-1],"split_conditions":[3E0,2E0,1.2156863E-1,1E0,3.3333335E-2,1.1031E4,2E-1,3.5E2,1E0,4.1332E4,2E0,3E1,1E0,-1.6849001E-1,9.986E3,-1.24871194E-1,-1.5043198E-2,-1.16549246E-1,4.7363278E-2,-2.4295593E-2,-1.4262539E-1,-1.4933063E-1,-1.3260654E-1,-1.9667396E-2,-1.10098794E-1,-2.1408632E-2,-1.5505894E-1,-1.1075132E-1,1.5950504E-1],"split_indices":[5,4,2,50,14,0,14,11,16,12,1,11,15,0,0,0,0,0,0,0,0,0,0,0,0,0,0,0,0],"split_type":[0,0,0,0,0,0,0,0,0,0,0,0,0,0,0,0,0,0,0,0,0,0,0,0,0,0,0,0,0],"sum_hessian":[2.6095447E3,2.4577874E3,1.5175725E2,5.758716E2,1.8819158E3,1.1308866E2,3.866859E1,5.5410144E2,2.1770168E1,4.056938E1,1.8413463E3,8.654925E1,2.6539417E1,3.5540344E1,3.1282444E0,5.463572E2,7.74428E0,1.267965E1,9.090517E0,2.5966185E1,1.4603198E1,1.1069656E3,7.343808E2,5.614511E1,3.0404135E1,2.108189E0,2.4431229E1,1.7992412E0,1.3290032E0],"tree_param":{"num_deleted":"0","num_feature":"64","num_nodes":"29","size_leaf_vector":"1"}},{"base_weights":[1.627345E-2,-1.6491579E-1,5.4795068E-2,-5.2117843E-2,-2.8585055E-1,1.6702472E-1,2.4152389E-2,-1.1306917E-1,1.4955612E-1,-9.9217445E-2,-3.144025E-1,2.1043503E-1,-1.5148973E-1,-3.9233316E-2,1.09524146E-1,-6.872772E-3,-8.019796E-2,9.138549E-2,-1.0539926E-1,-6.518007E-2,4.7369402E-2,-1.13431945E-1,-6.341097E-2,-1.3920578E-2,7.986833E-2,-9.502344E-2,1.2795553E-2,1.8241042E-2,-3.0890385E-2,8.136703E-2,1.0861049E-2],"categories":[],"categories_nodes":[],"categories_segments":[],"categories_sizes":[],"default_left":[0,0,0,0,0,0,0,0,0,0,0,0,0,0,0,0,0,0,0,0,0,0,0,0,0,0,0,0,0,0,0],"id":16,"left_children":[1,3,5,7,9,11,13,15,17,19,21,23,25,27,29,-1,-1,-1,-1,-1,-1,-1,-1,-1,-1,-1,-1,-1,-1,-1,-1],"loss_changes":[2.6637394E1,9.113085E0,1.0818433E1,4.287801E0,1.6884079E0,9.361929E0,1.3387569E1,3.712517E0,6.4033933E0,1.3782829E0,1.7541103E0,8.527922E0,2.6287923E0,9.060516E0,1.2487374E1,0E0,0E0,0E0,0E0,0E0,0E0,0E0,0E0,0E0,0E0,0E0,0E0,0E0,0E0,0E0,0E0],"parents":[2147483647,0,0,1,1,2,2,3,3,4,4,5,5,6,6,7,7,8,8,9,9,10,10,11,11,12,12,13,13,14,14],"right_children":[2,4,6,8,10,12,14,16,18,20,22,24,26,28,30,-1,-1,-1,-1,-1,-1,-1,-1,-1,-1,-1,-1,-1,-1,-1,-1],"split_conditions":[2E0,1E0,7.843138E-3,1.1611E4,1.5686275E-2,2.1052632E-1,2E0,4.1336E4,1.6862746E-1,4.1335E4,9.827E3,1E0,8.119E3,2E0,1E0,-6.872772E-3,-8.019796E-2,9.138549E-2,-1.0539926E-1,-6.518007E-2,4.7369402E-2,-1.13431945E-1,-6.341097E-2,-1.3920578E-2,7.986833E-2,-9.502344E-2,1.2795553E-2,1.8241042E-2,-3.0890385E-2,8.136703E-2,1.0861049E-2],"split_indices":[8,16,2,0,2,10,5,12,2,12,0,32,0,3,25,0,0,0,0,0,0,0,0,0,0,0,0,0,0,0,0],"split_type":[0,0,0,0,0,0,0,0,0,0,0,0,0,0,0,0,0,0,0,0,0,0,0,0,0,0,0,0,0,0,0],"sum_hessian":[3.814114E3,6.681484E2,3.1459656E3,3.4644455E2,3.217038E2,6.7377936E2,2.4721863E3,2.6637744E2,8.006712E1,4.3279194E1,2.7842462E2,5.9326294E2,8.051646E1,1.4190953E3,1.053091E3,1.6884177E2,9.753567E1,6.143898E1,1.8628141E1,2.9767172E1,1.3512023E1,1.7039896E2,1.0802566E2,1.05905304E2,4.873576E2,4.3152847E1,3.7363605E1,5.522847E2,8.668106E2,3.2769733E2,7.253936E2],"tree_param":{"num_deleted":"0","num_feature":"64","num_nodes":"31","size_leaf_vector":"1"}},{"base_weights":[1.1219203E-1,1.4359133E-2,1.5349048E-1,4.182817E-2,-1.2027157E-1,1.2928905E-1,2.627361E-1,-8.290648E-2,8.3035395E-2,-2.4348387E-1,9.429429E-3,1.8008749E-1,7.1059786E-2,2.774054E-1,-4.3122345E-1,-4.2545624E-2,1.9735053E-2,5.0705504E-2,6.203033E-4,-1.01341605E-1,-1.9861644E-2,3.7939876E-2,-2.885111E-2,2.0904299E-2,6.428714E-2,2.7975122E-2,-4.112473E-2,1.0191033E-1,5.7673916E-2,-1.5179446E-1,3.2688923E-2],"categories":[],"categories_nodes":[],"categories_segments":[],"categories_sizes":[],"default_left":[0,0,0,0,0,0,0,0,0,0,0,0,0,0,0,0,0,0,0,0,0,0,0,0,0,0,0,0,0,0,0],"id":17,"left_children":[1,3,5,7,9,11,13,15,17,19,21,23,25,27,29,-1,-1,-1,-1,-1,-1,-1,-1,-1,-1,-1,-1,-1,-1,-1,-1],"loss_changes":[1.7115574E1,4.6598835E0,7.8422775E0,5.3839927E0,3.415027E0,7.206764E0,5.6095924E0,2.2892988E0,5.477619E0,1.8094869E0,1.3098581E0,4.9050636E0,5.272866E0,2.7396736E0,5.217781E-1,0E0,0E0,0E0,0E0,0E0,0E0,0E0,0E0,0E0,0E0,0E0,0E0,0E0,0E0,0E0,0E0],"parents":[2147483647,0,0,1,1,2,2,3,3,4,4,5,5,6,6,7,7,8,8,9,9,10,10,11,11,12,12,13,13,14,14],"right_children":[2,4,6,8,10,12,14,16,18,20,22,24,26,28,30,-1,-1,-1,-1,-1,-1,-1,-1,-1,-1,-1,-1,-1,-1,-1,-1],"split_conditions":[1E0,5.263158E-2,2E-1,6.666667E-2,1E0,1.1764706E-2,1E0,3E0,1E0,1.0038E4,2E0,2E0,3E0,1E0,2.3529412E-2,-4.2545624E-2,1.9735053E-2,5.0705504E-2,6.203033E-4,-1.01341605E-1,-1.9861644E-2,3.7939876E-2,-2.885111E-2,2.0904299E-2,6.428714E-2,2.7975122E-2,-4.112473E-2,1.0191033E-1,5.7673916E-2,-1.5179446E-1,3.2688923E-2],"split_indices":[38,10,14,14,45,2,47,6,16,0,1,4,3,22,2,0,0,0,0,0,0,0,0,0,0,0,0,0,0,0,0],"split_type":[0,0,0,0,0,0,0,0,0,0,0,0,0,0,0,0,0,0,0,0,0,0,0,0,0,0,0,0,0,0,0],"sum_hessian":[4.235711E3,1.257689E3,2.9780222E3,1.0451366E3,2.1255247E2,2.4397273E3,5.382949E2,2.5928043E2,7.8585614E2,1.08552956E2,1.0399952E2,1.301886E3,1.1378412E3,5.277395E2,1.0555391E1,1.8573628E2,7.3544136E1,3.8059702E2,4.052591E2,7.026354E1,3.8289413E1,4.9234768E1,5.4764755E1,3.0863986E2,9.932461E2,1.0287188E3,1.0912252E2,3.0305746E2,2.2468205E2,9.327808E0,1.2275828E0],"tree_param":{"num_deleted":"0","num_feature":"64","num_nodes":"31","size_leaf_vector":"1"}},{"base_weights":[3.2529898E-2,-2.0545868E-3,2.3402612E-1,3.8357608E-2,-5.538828E-2,2.1915074E-1,7.5032663E-1,-1.5022491E-1,5.7468057E-2,-6.571996E-2,2.2706784E-1,2.7324823E-1,1.05497316E-1,9.7373134E-1,-7.046127E-2,1.0488807E-1,-6.342996E-2,-2.4592006E-3,2.9878372E-2,-2.1629676E-2,1.02008946E-1,-1.4331851E-3,1.1292734E-1,1.03729725E-1,5.1353633E-2,4.447897E-2,-5.061841E-2,3.754889E-1,1.9771044E-1,-1.3348943E-1,1.026347E-1],"categories":[],"categories_nodes":[],"categories_segments":[],"categories_sizes":[],"default_left":[0,0,0,0,0,0,0,0,0,0,0,0,0,0,0,0,0,0,0,0,0,0,0,0,0,0,0,0,0,0,0],"id":18,"left_children":[1,3,5,7,9,11,13,15,17,19,21,23,25,27,29,-1,-1,-1,-1,-1,-1,-1,-1,-1,-1,-1,-1,-1,-1,-1,-1],"loss_changes":[2.7003872E1,7.132636E0,4.1953793E0,6.793865E0,4.177991E0,3.3723698E0,2.9080372E0,5.382597E0,4.73176E0,3.5885515E0,1.7527089E0,2.7102985E0,2.1362548E0,2.4550915E-1,8.082085E-1,0E0,0E0,0E0,0E0,0E0,0E0,0E0,0E0,0E0,0E0,0E0,0E0,0E0,0E0,0E0,0E0],"parents":[2147483647,0,0,1,1,2,2,3,3,4,4,5,5,6,6,7,7,8,8,9,9,10,10,11,11,12,12,13,13,14,14],"right_children":[2,4,6,8,10,12,14,16,18,20,22,24,26,28,30,-1,-1,-1,-1,-1,-1,-1,-1,-1,-1,-1,-1,-1,-1,-1,-1],"split_conditions":[2.3333333E-1,2E0,1E0,1E0,1E0,2E0,1.0526316E-1,1E0,2E0,1E0,1E-1,1.5686275E-2,1.3074E4,1E0,3.6666667E-1,1.0488807E-1,-6.342996E-2,-2.4592006E-3,2.9878372E-2,-2.1629676E-2,1.02008946E-1,-1.4331851E-3,1.1292734E-1,1.03729725E-1,5.1353633E-2,4.447897E-2,-5.061841E-2,3.754889E-1,1.9771044E-1,-1.3348943E-1,1.026347E-1],"split_indices":[14,1,47,15,46,7,10,16,3,47,14,2,0,22,14,0,0,0,0,0,0,0,0,0,0,0,0,0,0,0,0],"split_type":[0,0,0,0,0,0,0,0,0,0,0,0,0,0,0,0,0,0,0,0,0,0,0,0,0,0,0,0,0,0,0],"sum_hessian":[3.8739854E3,3.3073132E3,5.666721E2,1.8817488E3,1.4255646E3,5.5218726E2,1.4484866E1,1.7251404E2,1.7092347E3,1.3760005E3,4.9564026E1,3.7316266E2,1.7902461E2,1.1239363E1,3.2455034E0,1.8306187E1,1.5420786E2,6.6830646E2,1.0409282E3,1.3555122E3,2.048826E1,1.9798687E1,2.9765337E1,2.1676768E2,1.5639497E2,1.5526941E2,2.3755198E1,4.3875775E0,6.8517857E0,1.6600997E0,1.5854038E0],"tree_param":{"num_deleted":"0","num_feature":"64","num_nodes":"31","size_leaf_vector":"1"}},{"base_weights":[1.18231095E-1,-7.688706E-2,2.1791105E-1,2.0803787E-1,-1.2758145E-1,1.7649652E-1,4.3455514E-1,2.5453758E-1,-4.2367315E-1,1.5604618E-1,-1.7119323E-1,3.40237E-1,1.2157215E-1,5.5862767E-1,3.3983338E-1,2.8591865E-1,6.4873666E-2,-1.5916038E-1,2.0436605E-2,8.691012E-2,-2.7900543E-2,1.4561623E-1,-5.5609193E-2,1.5684073E-1,5.536021E-2,-6.225271E-3,6.0524177E-2,2.1784942E-1,1.1375908E-1,1.926921E-1,8.587725E-2],"categories":[],"categories_nodes":[],"categories_segments":[],"categories_sizes":[],"default_left":[0,0,0,0,0,0,0,0,0,0,0,0,0,0,0,0,0,0,0,0,0,0,0,0,0,0,0,0,0,0,0],"id":19,"left_children":[1,3,5,7,9,11,13,15,17,19,21,23,25,27,29,-1,-1,-1,-1,-1,-1,-1,-1,-1,-1,-1,-1,-1,-1,-1,-1],"loss_changes":[8.286855E1,2.0842325E1,2.5222641E1,6.513175E0,1.5167835E1,2.1262978E1,5.120384E0,5.243331E0,8.4157825E-1,5.474479E0,9.965601E0,1.6801811E1,2.0263262E1,5.5583725E0,4.00976E0,0E0,0E0,0E0,0E0,0E0,0E0,0E0,0E0,0E0,0E0,0E0,0E0,0E0,0E0,0E0,0E0],"parents":[2147483647,0,0,1,1,2,2,3,3,4,4,5,5,6,6,7,7,8,8,9,9,10,10,11,11,12,12,13,13,14,14],"right_children":[2,4,6,8,10,12,14,16,18,20,22,24,26,28,30,-1,-1,-1,-1,-1,-1,-1,-1,-1,-1,-1,-1,-1,-1,-1,-1],"split_conditions":[1.1764706E-2,1E0,5.263158E-2,3E0,1E0,6.666667E-2,1E0,4.1325E4,4.1332E4,4.1336E4,3.3333335E-2,1E0,2.3529412E-2,1E0,1E0,2.8591865E-1,6.4873666E-2,-1.5916038E-1,2.0436605E-2,8.691012E-2,-2.7900543E-2,1.4561623E-1,-5.5609193E-2,1.5684073E-1,5.536021E-2,-6.225271E-3,6.0524177E-2,2.1784942E-1,1.1375908E-1,1.926921E-1,8.587725E-2],"split_indices":[2,38,10,4,15,14,38,12,12,12,14,45,2,45,15,0,0,0,0,0,0,0,0,0,0,0,0,0,0,0,0],"split_type":[0,0,0,0,0,0,0,0,0,0,0,0,0,0,0,0,0,0,0,0,0,0,0,0,0,0,0,0,0,0,0],"sum_hessian":[4.2588716E3,1.4401276E3,2.818744E3,2.1705853E2,1.223069E3,2.3679014E3,4.508426E2,2.0273262E2,1.4325911E1,1.6265698E2,1.0604121E3,5.934661E2,1.7744352E3,1.9306126E2,2.577813E2,9.294414E0,1.934382E2,1.1703995E1,2.6219153E0,1.05744736E2,5.691224E1,2.1700455E1,1.0387115E3,2.7208374E2,3.2138235E2,6.3966797E2,1.1347672E3,9.826385E1,9.479742E1,3.7135674E1,2.2064565E2],"tree_param":{"num_deleted":"0","num_feature":"64","num_nodes":"31","size_leaf_vector":"1"}},{"base_weights":[-4.2079264E-1,-3.7182358E-1,-4.4459432E-1,-4.069705E-1,-3.1890512E-1,-1.9021316E-1,-4.502187E-1,1.06574826E-1,-4.103833E-1,-2.8680092E-1,-4.2652622E-1,-2.3197484E-1,1.6597715E-1,-4.798569E-1,-4.0805197E-1,-1.0369986E-1,1.7691773E-1,-1.1243763E-1,-1.3629355E-1,-9.302177E-2,-3.344968E-2,4.6294134E-2,-1.316765E-1,-2.4609884E-2,-1.3480355E-1,-1.4843379E-1,-1.2934744E-1,-1.7042378E-2,-1.2341104E-1],"categories":[],"categories_nodes":[],"categories_segments":[],"categories_sizes":[],"default_left":[0,0,0,0,0,0,0,0,0,0,0,0,0,0,0,0,0,0,0,0,0,0,0,0,0,0,0,0,0],"id":20,"left_children":[1,3,5,7,9,11,13,15,17,19,21,23,-1,25,27,-1,-1,-1,-1,-1,-1,-1,-1,-1,-1,-1,-1,-1,-1],"loss_changes":[2.5290527E0,1.2878647E0,2.13266E0,8.4012604E-1,9.4467163E-1,1.2234615E0,1.6990967E0,1.0327531E0,5.3578186E-1,9.4825745E-1,5.6382084E-1,1.074554E0,0E0,4.2959595E-1,7.138138E-1,0E0,0E0,0E0,0E0,0E0,0E0,0E0,0E0,0E0,0E0,0E0,0E0,0E0,0E0],"parents":[2147483647,0,0,1,1,2,2,3,3,4,4,5,5,6,6,7,7,8,8,9,9,10,10,11,11,13,13,14,14],"right_children":[2,4,6,8,10,12,14,16,18,20,22,24,-1,26,28,-1,-1,-1,-1,-1,-1,-1,-1,-1,-1,-1,-1,-1,-1],"split_conditions":[1E0,2E0,3.3333335E-2,4.1325E4,1.1674E4,1.4585E4,2E0,1.3333334E-1,1.3333334E-1,1.0151E4,3.921569E-3,1E0,1.6597715E-1,4.1336E4,3.921569E-3,-1.0369986E-1,1.7691773E-1,-1.1243763E-1,-1.3629355E-1,-9.302177E-2,-3.344968E-2,4.6294134E-2,-1.316765E-1,-2.4609884E-2,-1.3480355E-1,-1.4843379E-1,-1.2934744E-1,-1.7042378E-2,-1.2341104E-1],"split_indices":[25,5,14,12,0,0,1,14,14,0,2,32,0,12,2,0,0,0,0,0,0,0,0,0,0,0,0,0,0],"split_type":[0,0,0,0,0,0,0,0,0,0,0,0,0,0,0,0,0,0,0,0,0,0,0,0,0,0,0,0,0],"sum_hessian":[2.3106858E3,7.6121045E2,1.5494753E3,4.5339093E2,3.0781952E2,3.427118E1,1.5152042E3,2.7936032E0,4.5059732E2,2.3991576E2,6.790378E1,3.30999E1,1.17128E0,8.836932E2,6.31511E2,1.5899395E0,1.2036637E0,2.5418565E2,1.9641167E2,2.1112035E2,2.8795408E1,1.1795936E0,6.672418E1,2.0403185E1,1.2696716E1,6.694108E2,2.1428235E2,6.0795264E0,6.2543146E2],"tree_param":{"num_deleted":"0","num_feature":"64","num_nodes":"29","size_leaf_vector":"1"}},{"base_weights":[1.5782928E-2,-1.4083588E-1,4.74351E-2,-3.817732E-2,-2.5677705E-1,-6.859027E-3,1.01991095E-1,-1.319405E-1,7.616529E-2,-3.1294036E-1,-1.6156356E-1,2.1087149E-1,-4.419435E-2,1.4453879E-1,-3.5399742E-2,2.9941719E-2,-6.173327E-2,9.015291E-2,-1.8409216E-4,-3.8491726E-2,-1.038683E-1,-6.443917E-2,9.647466E-2,7.927988E-2,-3.6702987E-2,-4.5774383E-3,-7.191111E-2,4.546736E-2,-1.3443853E-1,-2.6271906E-2,4.2370405E-2],"categories":[],"categories_nodes":[],"categories_segments":[],"categories_sizes":[],"default_left":[0,0,0,0,0,0,0,0,0,0,0,0,0,0,0,0,0,0,0,0,0,0,0,0,0,0,0,0,0,0,0],"id":21,"left_children":[1,3,5,7,9,11,13,15,17,19,21,23,25,27,29,-1,-1,-1,-1,-1,-1,-1,-1,-1,-1,-1,-1,-1,-1,-1,-1],"loss_changes":[1.8873817E1,7.608927E0,9.381005E0,3.6624477E0,1.5559902E0,1.2919452E1,9.239267E0,3.2297401E0,2.654994E0,1.1103954E0,2.989066E0,4.1714277E0,7.670533E0,5.0862255E0,3.4619877E0,0E0,0E0,0E0,0E0,0E0,0E0,0E0,0E0,0E0,0E0,0E0,0E0,0E0,0E0,0E0,0E0],"parents":[2147483647,0,0,1,1,2,2,3,3,4,4,5,5,6,6,7,7,8,8,9,9,10,10,11,11,12,12,13,13,14,14],"right_children":[2,4,6,8,10,12,14,16,18,20,22,24,26,28,30,-1,-1,-1,-1,-1,-1,-1,-1,-1,-1,-1,-1,-1,-1,-1,-1],"split_conditions":[2E0,1E0,2E0,2E0,9.927E3,1E0,1.9607844E-2,2E0,6.666667E-2,1.5686275E-2,1.9215687E-1,2.6666668E-1,3.137255E-2,1E0,1.1725E4,2.9941719E-2,-6.173327E-2,9.015291E-2,-1.8409216E-4,-3.8491726E-2,-1.038683E-1,-6.443917E-2,9.647466E-2,7.927988E-2,-3.6702987E-2,-4.5774383E-3,-7.191111E-2,4.546736E-2,-1.3443853E-1,-2.6271906E-2,4.2370405E-2],"split_indices":[8,16,1,5,0,16,2,1,14,2,2,2,2,47,0,0,0,0,0,0,0,0,0,0,0,0,0,0,0,0,0],"split_type":[0,0,0,0,0,0,0,0,0,0,0,0,0,0,0,0,0,0,0,0,0,0,0,0,0,0,0,0,0,0,0],"sum_hessian":[3.8049102E3,6.3910266E2,3.1658076E3,3.3967303E2,2.9942966E2,1.58715E3,1.5786576E3,1.8654697E2,1.5312607E2,1.8689798E2,1.1253167E2,2.3163908E2,1.3555109E3,1.2053334E3,3.733241E2,4.498973E1,1.4155724E2,3.8300335E1,1.1482574E2,2.9289938E1,1.5760805E2,1.0186362E2,1.0668052E1,1.9982568E2,3.1813404E1,1.1816934E3,1.7381763E2,1.191961E3,1.3372331E1,2.885871E2,8.473701E1],"tree_param":{"num_deleted":"0","num_feature":"64","num_nodes":"31","size_leaf_vector":"1"}},{"base_weights":[9.095404E-2,1.2442452E-1,1.9242862E-2,4.4728957E-2,1.4891697E-1,7.749098E-2,-5.2461937E-2,1.5178308E-1,-8.18608E-3,1.4631498E-1,7.407085E-1,2.0551507E-1,-3.9923214E-4,2.1918718E-2,-1.3371758E-1,5.8067773E-2,-4.463347E-2,-5.6639954E-2,8.186894E-3,3.4061022E-2,5.4542836E-2,3.2423812E-1,3.7230317E-2,5.744729E-2,3.103686E-1,-4.0420637E-2,1.1472993E-2,-5.9712324E-2,2.4335647E-2,-4.880421E-2,8.420861E-2],"categories":[],"categories_nodes":[],"categories_segments":[],"categories_sizes":[],"default_left":[0,0,0,0,0,0,0,0,0,0,0,0,0,0,0,0,0,0,0,0,0,0,0,0,0,0,0,0,0,0,0],"id":22,"left_children":[1,3,5,7,9,11,13,15,17,19,21,23,25,27,29,-1,-1,-1,-1,-1,-1,-1,-1,-1,-1,-1,-1,-1,-1,-1,-1],"loss_changes":[1.0343903E1,5.729519E0,5.738128E0,3.922727E0,3.3523102E0,7.5579715E0,3.7256682E0,2.9046688E0,2.9795966E0,2.5841446E0,1.8773336E0,3.1352339E0,2.456522E0,4.2339454E0,3.5806203E0,0E0,0E0,0E0,0E0,0E0,0E0,0E0,0E0,0E0,0E0,0E0,0E0,0E0,0E0,0E0,0E0],"parents":[2147483647,0,0,1,1,2,2,3,3,4,4,5,5,6,6,7,7,8,8,9,9,10,10,11,11,12,12,13,13,14,14],"right_children":[2,4,6,8,10,12,14,16,18,20,22,24,26,28,30,-1,-1,-1,-1,-1,-1,-1,-1,-1,-1,-1,-1,-1,-1,-1,-1],"split_conditions":[2.3529412E-2,2E0,1E0,2E0,4.5E2,2E0,5.0980393E-2,1E0,1E0,1.3333334E-1,9.827E3,4E0,6.666667E-2,6.666667E-2,1.7E2,5.8067773E-2,-4.463347E-2,-5.6639954E-2,8.186894E-3,3.4061022E-2,5.4542836E-2,3.2423812E-1,3.7230317E-2,5.744729E-2,3.103686E-1,-4.0420637E-2,1.1472993E-2,-5.9712324E-2,2.4335647E-2,-4.880421E-2,8.420861E-2],"split_indices":[2,4,16,3,11,1,2,11,38,14,0,4,14,14,11,0,0,0,0,0,0,0,0,0,0,0,0,0,0,0,0],"split_type":[0,0,0,0,0,0,0,0,0,0,0,0,0,0,0,0,0,0,0,0,0,0,0,0,0,0,0,0,0,0,0],"sum_hessian":[4.309584E3,2.9377046E3,1.3718793E3,6.9125806E2,2.2464463E3,7.569245E2,6.1495483E2,2.2803821E2,4.6321988E2,2.2378542E3,8.592131E0,2.856984E2,4.712261E2,3.2144098E2,2.9351382E2,2.005228E2,2.7515419E1,7.533794E1,3.8788193E2,1.1656262E3,1.072228E3,5.0526E0,3.539531E0,2.821564E2,3.541967E0,1.04713905E2,3.665122E2,6.7423996E1,2.5401698E2,2.7490808E2,1.8605738E1],"tree_param":{"num_deleted":"0","num_feature":"64","num_nodes":"31","size_leaf_vector":"1"}},{"base_weights":[2.9849945E-2,-5.2189846E-3,1.7296463E-1,-2.8005677E-1,1.2577646E-3,2.4744458E-1,9.928145E-2,2.4395613E-1,-3.1540874E-1,1.6492564E-2,-1.05499215E-1,2.653383E-1,-3.020187E-1,7.623775E-2,5.8628654E-1,-1.150151E-1,2.0149363E-2,1.9438487E-2,-8.641966E-3,3.8627047E-2,-4.1619927E-2,8.414884E-2,-9.09369E-2,-1.7343041E-1,6.901914E-3,-3.048319E-2,3.945412E-2,2.489729E-1,-1.4539759E-1],"categories":[],"categories_nodes":[],"categories_segments":[],"categories_sizes":[],"default_left":[0,0,0,0,0,0,0,0,0,0,0,0,0,0,0,0,0,0,0,0,0,0,0,0,0,0,0,0,0],"id":23,"left_children":[1,3,5,7,9,11,13,-1,15,17,19,21,23,25,27,-1,-1,-1,-1,-1,-1,-1,-1,-1,-1,-1,-1,-1,-1],"loss_changes":[1.9466309E1,5.5471473E0,4.1646805E0,3.0293646E0,4.9547343E0,3.8060112E0,4.2804337E0,0E0,1.8518381E0,5.8349705E0,2.9797401E0,3.251957E0,1.1277459E0,3.6422722E0,4.9061937E0,0E0,0E0,0E0,0E0,0E0,0E0,0E0,0E0,0E0,0E0,0E0,0E0,0E0,0E0],"parents":[2147483647,0,0,1,1,2,2,3,3,4,4,5,5,6,6,8,8,9,9,10,10,11,11,12,12,13,13,14,14],"right_children":[2,4,6,8,10,12,14,-1,16,18,20,22,24,26,28,-1,-1,-1,-1,-1,-1,-1,-1,-1,-1,-1,-1,-1,-1],"split_conditions":[2E-1,3.3333335E-2,1E0,2.29E2,3E0,1E0,1E0,2.4395613E-1,1.5789473E-1,1E0,7.843138E-3,1.4636E4,2.6666668E-1,2.3333333E-1,3E0,-1.150151E-1,2.0149363E-2,1.9438487E-2,-8.641966E-3,3.8627047E-2,-4.1619927E-2,8.414884E-2,-9.09369E-2,-1.7343041E-1,6.901914E-3,-3.048319E-2,3.945412E-2,2.489729E-1,-1.4539759E-1],"split_indices":[14,14,32,0,8,46,46,0,10,32,2,0,14,14,3,0,0,0,0,0,0,0,0,0,0,0,0,0,0],"split_type":[0,0,0,0,0,0,0,0,0,0,0,0,0,0,0,0,0,0,0,0,0,0,0,0,0,0,0,0,0],"sum_hessian":[3.8774375E3,3.1150796E3,7.623579E2,7.074646E1,3.044333E3,3.779563E2,3.844016E2,1.5268446E0,6.921962E1,2.664885E3,3.79448E2,3.6653683E2,1.141947E1,3.6813885E2,1.6262745E1,5.8774548E1,1.0445068E1,1.2894819E3,1.3754032E3,4.678682E1,3.326612E2,3.575105E2,9.026334E0,5.7536077E0,5.665862E0,8.7090416E1,2.8104843E2,1.34321995E1,2.8305454E0],"tree_param":{"num_deleted":"0","num_feature":"64","num_nodes":"29","size_leaf_vector":"1"}},{"base_weights":[9.38399E-2,-6.496135E-2,1.7075221E-1,-1.1798932E-1,1.8230973E-1,6.363375E-1,1.5691356E-1,5.7684057E-3,-1.9983122E-1,1.4535068E-1,8.1262046E-1,5.202702E-1,8.750631E-1,1.340489E-1,4.3584436E-1,1.563642E-1,-6.7521995E-3,6.270831E-2,-6.5311894E-2,6.880655E-2,-4.631576E-2,2.890352E-1,-2.8812997E-2,1.0176496E-1,2.2070192E-1,3.160362E-1,3.88472E-2,9.892886E-3,5.708083E-2,2.0510007E-1,8.874348E-2],"categories":[],"categories_nodes":[],"categories_segments":[],"categories_sizes":[],"default_left":[0,0,0,0,0,0,0,0,0,0,0,0,0,0,0,0,0,0,0,0,0,0,0,0,0,0,0,0,0,0,0],"id":24,"left_children":[1,3,5,7,9,11,13,15,17,19,21,23,25,27,29,-1,-1,-1,-1,-1,-1,-1,-1,-1,-1,-1,-1,-1,-1,-1,-1],"loss_changes":[5.270268E1,1.848885E1,1.8628296E1,1.1753401E1,5.6846943E0,1.8604546E0,1.7952965E1,6.75757E0,5.1501083E0,5.9906588E0,1.9536009E0,2.0397491E0,3.304987E0,1.4833866E1,7.207554E0,0E0,0E0,0E0,0E0,0E0,0E0,0E0,0E0,0E0,0E0,0E0,0E0,0E0,0E0,0E0,0E0],"parents":[2147483647,0,0,1,1,2,2,3,3,4,4,5,5,6,6,7,7,8,8,9,9,10,10,11,11,12,12,13,13,14,14],"right_children":[2,4,6,8,10,12,14,16,18,20,22,24,26,28,30,-1,-1,-1,-1,-1,-1,-1,-1,-1,-1,-1,-1,-1,-1,-1,-1],"split_conditions":[1.1764706E-2,1.5789473E-1,3.3333335E-2,1E-1,1E0,1E0,1.0526316E-1,3.3333335E-2,2E0,2.3333333E-1,3.1578946E-1,1E0,3E0,2.3529412E-2,2E0,1.563642E-1,-6.7521995E-3,6.270831E-2,-6.5311894E-2,6.880655E-2,-4.631576E-2,2.890352E-1,-2.8812997E-2,1.0176496E-1,2.2070192E-1,3.160362E-1,3.88472E-2,9.892886E-3,5.708083E-2,2.0510007E-1,8.874348E-2],"split_indices":[2,10,14,14,46,32,10,14,8,14,10,16,3,2,1,0,0,0,0,0,0,0,0,0,0,0,0,0,0,0,0],"split_type":[0,0,0,0,0,0,0,0,0,0,0,0,0,0,0,0,0,0,0,0,0,0,0,0,0,0,0,0,0,0,0],"sum_hessian":[4.313112E3,1.4074004E3,2.9057112E3,1.1593068E3,2.4809367E2,8.257542E1,2.823136E3,4.6184882E2,6.974579E2,2.3551457E2,1.2579088E1,5.7700874E1,2.4874542E1,2.6106174E3,2.1251842E2,2.311143E1,4.387374E2,2.8767254E1,6.686907E2,1.8414166E2,5.1372917E1,1.073661E1,1.8424773E0,3.274899E1,2.4951885E1,1.9738764E1,5.1357784E0,9.336676E2,1.6769498E3,7.532682E1,1.3719159E2],"tree_param":{"num_deleted":"0","num_feature":"64","num_nodes":"31","size_leaf_vector":"1"}},{"base_weights":[-3.9530566E-1,-4.046939E-1,-2.4802314E-1,-3.4425655E-1,-4.2369655E-1,-9.207555E-2,-3.59856E-1,-3.5483053E-1,-8.674528E-2,-1.484222E-1,-4.300837E-1,1.0350416E-1,-2.666785E-1,-4.0064055E-1,5.45271E-2,-1.0822129E-1,8.677379E-3,-9.9208094E-2,6.316566E-2,-7.6215486E-3,-1.4797081E-1,-1.3716696E-1,-1.168605E-1,7.061992E-2,-1.3580461E-1,4.8612874E-2,-1.2009833E-1,-8.453298E-2,-1.6120973E-1,-7.431962E-2,1.4360717E-1],"categories":[],"categories_nodes":[],"categories_segments":[],"categories_sizes":[],"default_left":[0,0,0,0,0,0,0,0,0,0,0,0,0,0,0,0,0,0,0,0,0,0,0,0,0,0,0,0,0,0,0],"id":25,"left_children":[1,3,5,7,9,11,13,15,17,19,21,23,25,27,29,-1,-1,-1,-1,-1,-1,-1,-1,-1,-1,-1,-1,-1,-1,-1,-1],"loss_changes":[2.7435608E0,2.072937E0,2.1614084E0,1.242115E0,2.512848E0,1.8680687E0,1.2545261E0,1.0276146E0,1.5028725E0,1.4618901E0,1.3974609E0,2.0242348E0,1.7124462E0,9.296808E-1,1.0693312E0,0E0,0E0,0E0,0E0,0E0,0E0,0E0,0E0,0E0,0E0,0E0,0E0,0E0,0E0,0E0,0E0],"parents":[2147483647,0,0,1,1,2,2,3,3,4,4,5,5,6,6,7,7,8,8,9,9,10,10,11,11,12,12,13,13,14,14],"right_children":[2,4,6,8,10,12,14,16,18,20,22,24,26,28,30,-1,-1,-1,-1,-1,-1,-1,-1,-1,-1,-1,-1,-1,-1,-1,-1],"split_conditions":[3E0,2E0,3.137255E-2,1E0,3.3333335E-2,6.958E3,2E-1,3.5E2,1E0,4.1342E4,2E0,1.55E2,2E0,9.803922E-2,1.0038E4,-1.0822129E-1,8.677379E-3,-9.9208094E-2,6.316566E-2,-7.6215486E-3,-1.4797081E-1,-1.3716696E-1,-1.168605E-1,7.061992E-2,-1.3580461E-1,4.8612874E-2,-1.2009833E-1,-8.453298E-2,-1.6120973E-1,-7.431962E-2,1.4360717E-1],"split_indices":[5,4,2,50,14,0,14,11,16,12,1,11,4,2,0,0,0,0,0,0,0,0,0,0,0,0,0,0,0,0,0],"split_type":[0,0,0,0,0,0,0,0,0,0,0,0,0,0,0,0,0,0,0,0,0,0,0,0,0,0,0,0,0,0,0],"sum_hessian":[2.0557979E3,1.9309646E3,1.2483334E2,4.6647427E2,1.4644904E3,5.2895496E1,7.193784E1,4.4771228E2,1.8762009E1,3.375934E1,1.430731E3,2.5141127E1,2.775437E1,6.552216E1,6.4156795E0,4.4098422E2,6.7280297E0,1.0243962E1,8.518047E0,2.5673607E1,8.0857315E0,8.5092584E2,5.798051E2,2.0788132E1,4.3529944E0,6.5454273E0,2.1208942E1,3.6687916E1,2.883425E1,3.989039E0,2.4266407E0],"tree_param":{"num_deleted":"0","num_feature":"64","num_nodes":"31","size_leaf_vector":"1"}},{"base_weights":[1.505013E-2,-7.9669155E-2,5.269888E-2,3.6244508E-2,-1.5066141E-1,6.100901E-2,-2.957247E-1,-5.034357E-2,1.3128796E-1,1.3939507E-1,-1.7243467E-1,1.50622735E-2,1.270153E-1,-3.351006E-1,1.2763797E-1,-3.1557932E-2,5.753367E-2,5.5653874E-2,-4.9149003E-2,2.2008292E-2,2.7966294E-1,-2.3194121E-2,-7.5431E-2,-2.8075961E-2,1.9287637E-2,-5.160764E-4,4.831363E-2,-3.8470574E-2,-1.2045742E-1,1.5913586E-1,-2.6177082E-2],"categories":[],"categories_nodes":[],"categories_segments":[],"categories_sizes":[],"default_left":[0,0,0,0,0,0,0,0,0,0,0,0,0,0,0,0,0,0,0,0,0,0,0,0,0,0,0,0,0,0,0],"id":26,"left_children":[1,3,5,7,9,11,13,15,17,19,21,23,25,27,29,-1,-1,-1,-1,-1,-1,-1,-1,-1,-1,-1,-1,-1,-1,-1,-1],"loss_changes":[1.3531115E1,8.886895E0,7.8790197E0,3.3869379E0,4.2524834E0,8.042613E0,1.0999317E0,2.8841915E0,3.168403E0,2.4080524E0,4.664009E0,8.377036E0,4.7688446E0,7.495384E-1,5.76087E-1,0E0,0E0,0E0,0E0,0E0,0E0,0E0,0E0,0E0,0E0,0E0,0E0,0E0,0E0,0E0,0E0],"parents":[2147483647,0,0,1,1,2,2,3,3,4,4,5,5,6,6,7,7,8,8,9,9,10,10,11,11,12,12,13,13,14,14],"right_children":[2,4,6,8,10,12,14,16,18,20,22,24,26,28,30,-1,-1,-1,-1,-1,-1,-1,-1,-1,-1,-1,-1,-1,-1,-1,-1],"split_conditions":[1E0,1E0,1E0,2E0,7.843138E-3,2E0,1.3131E4,1.2484E4,1.25E2,3E0,1E0,1E0,6.666667E-2,2E0,1.3774E4,-3.1557932E-2,5.753367E-2,5.5653874E-2,-4.9149003E-2,2.2008292E-2,2.7966294E-1,-2.3194121E-2,-7.5431E-2,-2.8075961E-2,1.9287637E-2,-5.160764E-4,4.831363E-2,-3.8470574E-2,-1.2045742E-1,1.5913586E-1,-2.6177082E-2],"split_indices":[38,25,47,5,2,5,0,0,11,5,16,32,14,6,0,0,0,0,0,0,0,0,0,0,0,0,0,0,0,0,0],"split_type":[0,0,0,0,0,0,0,0,0,0,0,0,0,0,0,0,0,0,0,0,0,0,0,0,0,0,0,0,0,0,0],"sum_hessian":[3.7922354E3,1.0782883E3,2.713947E3,4.097509E2,6.685374E2,2.6515312E3,6.2415836E1,2.1465898E2,1.9509189E2,4.6302914E1,6.2223456E2,1.5640382E3,1.087493E3,5.7295414E1,5.120423E0,1.7547342E2,3.918557E1,1.651235E2,2.996838E1,4.375136E1,2.55155E0,2.8321417E2,3.3902036E2,4.8741864E2,1.0766196E3,2.275654E2,8.599277E2,1.4638169E1,4.2657246E1,1.2704914E0,3.8499317E0],"tree_param":{"num_deleted":"0","num_feature":"64","num_nodes":"31","size_leaf_vector":"1"}},{"base_weights":[7.460667E-2,1.2101053E-2,9.989226E-2,2.3025863E-2,-1.923083E-1,8.1767455E-2,2.1272306E-1,3.1140635E-2,-2.9251197E-1,-2.3146266E-1,2.8002492E-1,7.9112425E-2,7.117324E-1,2.2498499E-1,-1.6547672E-1,-8.54723E-2,1.1536554E-2,-1.21954165E-1,1.7838746E-1,-8.327815E-2,1.3859972E-1,2.8457643E-2,-4.0649837E-3,-1.781098E-2,3.151754E-1,6.380442E-2,2.0168011E-1],"categories":[],"categories_nodes":[],"categories_segments":[],"categories_sizes":[],"default_left":[0,0,0,0,0,0,0,0,0,0,0,0,0,0,0,0,0,0,0,0,0,0,0,0,0,0,0],"id":27,"left_children":[1,3,5,7,9,11,13,15,17,19,-1,21,23,25,-1,-1,-1,-1,-1,-1,-1,-1,-1,-1,-1,-1,-1],"loss_changes":[6.8984413E0,2.814804E0,6.338619E0,3.0702958E0,3.035017E0,4.4253254E0,4.1497135E0,2.7075286E0,3.2829852E0,2.1310601E0,0E0,3.896143E0,2.9680214E0,2.1874332E0,0E0,0E0,0E0,0E0,0E0,0E0,0E0,0E0,0E0,0E0,0E0,0E0,0E0],"parents":[2147483647,0,0,1,1,2,2,3,3,4,4,5,5,6,6,7,7,8,8,9,9,11,11,12,12,13,13],"right_children":[2,4,6,8,10,12,14,16,18,20,-1,22,24,26,-1,-1,-1,-1,-1,-1,-1,-1,-1,-1,-1,-1,-1],"split_conditions":[1E0,1.5789473E-1,2.3333333E-1,4E-1,5.3333336E-1,5.5E2,1E0,3.3333335E-2,1.08E2,1E0,2.8002492E-1,3E0,1E-1,3E0,-1.6547672E-1,-8.54723E-2,1.1536554E-2,-1.21954165E-1,1.7838746E-1,-8.327815E-2,1.3859972E-1,2.8457643E-2,-4.0649837E-3,-1.781098E-2,3.151754E-1,6.380442E-2,2.0168011E-1],"split_indices":[38,10,14,14,14,11,47,14,11,50,0,3,14,6,0,0,0,0,0,0,0,0,0,0,0,0,0],"split_type":[0,0,0,0,0,0,0,0,0,0,0,0,0,0,0,0,0,0,0,0,0,0,0,0,0,0,0],"sum_hessian":[4.3645093E3,1.25749E3,3.107019E3,1.1945345E3,6.2955433E1,2.6784805E3,4.2853845E2,1.1654634E3,2.9071224E1,6.1607037E1,1.3483956E0,2.66836E3,1.0120404E1,4.224664E2,6.0720334E0,2.5504612E1,1.1399587E3,2.6240896E1,2.830329E0,5.8326668E1,3.2803679E0,2.2807603E3,3.8759988E2,3.341402E0,6.779002E0,4.1259253E2,9.873892E0],"tree_param":{"num_deleted":"0","num_feature":"64","num_nodes":"27","size_leaf_vector":"1"}},{"base_weights":[2.7066488E-2,-2.4979296E-3,1.4467248E-1,2.3650315E-2,-6.0435724E-2,-6.0095634E-2,1.6613768E-1,-4.409027E-2,5.1000994E-2,-2.01563E-1,-3.5953965E-2,6.0330898E-2,-4.2619833E-1,1.9329807E-1,3.332979E-3,-2.6253847E-2,1.4034112E-2,-3.715341E-2,1.9924447E-2,-1.1585779E-1,-3.5760023E-2,-1.11667044E-1,-8.526365E-3,-1.1791955E-3,1.5402868E-1,-1.5573081E-1,1.08895175E-1,7.645318E-2,3.7096612E-2,-1.10708684E-1,2.6802378E-2],"categories":[],"categories_nodes":[],"categories_segments":[],"categories_sizes":[],"default_left":[0,0,0,0,0,0,0,0,0,0,0,0,0,0,0,0,0,0,0,0,0,0,0,0,0,0,0,0,0,0,0],"id":28,"left_children":[1,3,5,7,9,11,13,15,17,19,21,23,25,27,29,-1,-1,-1,-1,-1,-1,-1,-1,-1,-1,-1,-1,-1,-1,-1,-1],"loss_changes":[1.3495908E1,4.701915E0,3.4372406E0,3.9644752E0,3.3273013E0,3.319858E0,3.1212826E0,2.433316E0,4.1152573E0,2.120242E0,2.0758014E0,1.6645479E0,1.5534692E0,2.5619125E0,3.2984183E0,0E0,0E0,0E0,0E0,0E0,0E0,0E0,0E0,0E0,0E0,0E0,0E0,0E0,0E0,0E0,0E0],"parents":[2147483647,0,0,1,1,2,2,3,3,4,4,5,5,6,6,7,7,8,8,9,9,10,10,11,11,12,12,13,13,14,14],"right_children":[2,4,6,8,10,12,14,16,18,20,22,24,26,28,30,-1,-1,-1,-1,-1,-1,-1,-1,-1,-1,-1,-1,-1,-1,-1,-1],"split_conditions":[2E-1,4.1332E4,1.393E3,1E0,2.272E3,1.019E3,1.3074E4,4.7058824E-2,1E0,6.666667E-2,3.3333335E-2,1.25E-1,1.08E2,2E0,2E0,-2.6253847E-2,1.4034112E-2,-3.715341E-2,1.9924447E-2,-1.1585779E-1,-3.5760023E-2,-1.11667044E-1,-8.526365E-3,-1.1791955E-3,1.5402868E-1,-1.5573081E-1,1.08895175E-1,7.645318E-2,3.7096612E-2,-1.10708684E-1,2.6802378E-2],"split_indices":[14,12,0,25,0,0,0,2,15,14,14,13,11,1,4,0,0,0,0,0,0,0,0,0,0,0,0,0,0,0,0],"split_type":[0,0,0,0,0,0,0,0,0,0,0,0,0,0,0,0,0,0,0,0,0,0,0,0,0,0,0,0,0,0,0],"sum_hessian":[3.880429E3,3.101689E3,7.787401E2,2.1375642E3,9.6412476E2,7.371669E1,7.0502344E2,6.14642E2,1.5229221E3,1.4145598E2,8.2266876E2,5.6098686E1,1.7618002E1,6.0406165E2,1.0096177E2,4.159278E2,1.9871423E2,1.2280923E2,1.4001129E3,4.249894E1,9.895704E1,1.6964012E1,8.057048E2,4.9998825E1,6.0998607E0,1.6068598E1,1.5494058E0,3.1926022E2,2.8480142E2,1.832695E1,8.263482E1],"tree_param":{"num_deleted":"0","num_feature":"64","num_nodes":"31","size_leaf_vector":"1"}},{"base_weights":[7.485698E-2,-5.5336013E-2,1.3555963E-1,-1.3393782E-1,8.215254E-2,1.552413E-1,-1.5008211E-1,5.7432402E-2,-1.9181372E-1,2.141585E-1,-2.9435148E-2,1.3595942E-1,3.751544E-1,-7.399268E-2,-4.556097E-1,5.0377276E-2,-9.257468E-2,-9.674771E-2,-3.4786653E-2,1.5694211E-1,2.136308E-2,1.2892827E-2,-8.9382716E-2,5.6229256E-2,1.52648175E-2,1.6276284E-1,8.1740186E-2,-7.9921134E-2,1.0833948E-2,4.245247E-2,-1.5581077E-1],"categories":[],"categories_nodes":[],"categories_segments":[],"categories_sizes":[],"default_left":[0,0,0,0,0,0,0,0,0,0,0,0,0,0,0,0,0,0,0,0,0,0,0,0,0,0,0,0,0,0,0],"id":29,"left_children":[1,3,5,7,9,11,13,15,17,19,21,23,25,27,29,-1,-1,-1,-1,-1,-1,-1,-1,-1,-1,-1,-1,-1,-1,-1,-1],"loss_changes":[3.4343006E1,1.4948647E1,1.6682934E1,9.755841E0,7.4215403E0,1.1706673E1,4.418882E0,8.345221E0,6.661497E0,1.0153467E1,5.333912E0,1.1160732E1,3.6844215E0,3.2835522E0,1.5200324E0,0E0,0E0,0E0,0E0,0E0,0E0,0E0,0E0,0E0,0E0,0E0,0E0,0E0,0E0,0E0,0E0],"parents":[2147483647,0,0,1,1,2,2,3,3,4,4,5,5,6,6,7,7,8,8,9,9,10,10,11,11,12,12,13,13,14,14],"right_children":[2,4,6,8,10,12,14,16,18,20,22,24,26,28,30,-1,-1,-1,-1,-1,-1,-1,-1,-1,-1,-1,-1,-1,-1,-1,-1],"split_conditions":[1.1764706E-2,5.263158E-2,3E0,2E0,1E0,1.0526316E-1,1.882353E-1,1.6666667E-1,7.843138E-3,4.1335E4,2.3333333E-1,1.3333334E-1,2E0,3.529412E-2,7.84E2,5.0377276E-2,-9.257468E-2,-9.674771E-2,-3.4786653E-2,1.5694211E-1,2.136308E-2,1.2892827E-2,-8.9382716E-2,5.6229256E-2,1.52648175E-2,1.6276284E-1,8.1740186E-2,-7.9921134E-2,1.0833948E-2,4.245247E-2,-1.5581077E-1],"split_indices":[2,10,5,4,45,10,2,14,2,12,14,14,1,2,0,0,0,0,0,0,0,0,0,0,0,0,0,0,0,0,0],"split_type":[0,0,0,0,0,0,0,0,0,0,0,0,0,0,0,0,0,0,0,0,0,0,0,0,0,0,0,0,0,0,0],"sum_hessian":[4.3435835E3,1.3812385E3,2.9623452E3,8.788362E2,5.0240228E2,2.7718145E3,1.9053064E2,2.0407089E2,6.7476526E2,2.2972414E2,2.7267816E2,2.549862E3,2.2195245E2,1.5353583E2,3.699481E1,1.5716685E2,4.6904037E1,2.4663809E2,4.281272E2,7.182188E1,1.5790225E2,2.1542273E2,5.725543E1,1.5879492E3,9.619129E2,8.276132E1,1.3919113E2,5.5365147E1,9.8170685E1,3.4515066E0,3.35433E1],"tree_param":{"num_deleted":"0","num_feature":"64","num_nodes":"31","size_leaf_vector":"1"}},{"base_weights":[-3.704558E-1,-3.1475997E-1,-3.9864713E-1,-3.556729E-1,-2.5466883E-1,-1.2695506E-1,-4.0536433E-1,1.6803102E-1,-3.5970852E-1,-3.3721516E-1,-1.9684152E-1,7.911809E-2,-3.3325893E-1,-4.4195712E-1,-3.5498872E-1,-9.234415E-2,1.7449652E-1,-9.5316045E-2,-1.2378959E-1,-4.2209383E-2,-1.1877792E-1,-1.2805741E-2,-8.187628E-2,2.0789361E-1,-3.953287E-2,6.1353646E-2,-1.3294795E-1,-1.3828002E-1,-1.1445461E-1,-1.1834343E-1,-9.0364486E-2],"categories":[],"categories_nodes":[],"categories_segments":[],"categories_sizes":[],"default_left":[0,0,0,0,0,0,0,0,0,0,0,0,0,0,0,0,0,0,0,0,0,0,0,0,0,0,0,0,0,0,0],"id":30,"left_children":[1,3,5,7,9,11,13,15,17,19,21,23,25,27,29,-1,-1,-1,-1,-1,-1,-1,-1,-1,-1,-1,-1,-1,-1,-1,-1],"loss_changes":[2.764557E0,1.4418373E0,2.1719513E0,8.388672E-1,1.1556377E0,1.3379216E0,2.0338898E0,8.675377E-1,6.81797E-1,1.1449013E0,1.7820897E0,2.1939847E0,1.0131072E0,6.0902405E-1,9.5383453E-1,0E0,0E0,0E0,0E0,0E0,0E0,0E0,0E0,0E0,0E0,0E0,0E0,0E0,0E0,0E0,0E0],"parents":[2147483647,0,0,1,1,2,2,3,3,4,4,5,5,6,6,7,7,8,8,9,9,10,10,11,11,12,12,13,13,14,14],"right_children":[2,4,6,8,10,12,14,16,18,20,22,24,26,28,30,-1,-1,-1,-1,-1,-1,-1,-1,-1,-1,-1,-1,-1,-1,-1,-1],"split_conditions":[1E0,2E0,3.3333335E-2,4.1325E4,1E0,2E0,2E0,1.3333334E-1,1.3333334E-1,4.088E3,1.1764706E-2,1.1764706E-2,1.911E3,4.1336E4,2E0,-9.234415E-2,1.7449652E-1,-9.5316045E-2,-1.2378959E-1,-4.2209383E-2,-1.1877792E-1,-1.2805741E-2,-8.187628E-2,2.0789361E-1,-3.953287E-2,6.1353646E-2,-1.3294795E-1,-1.3828002E-1,-1.1445461E-1,-1.1834343E-1,-9.0364486E-2],"split_indices":[25,5,14,12,45,7,1,14,14,0,2,2,0,12,5,0,0,0,0,0,0,0,0,0,0,0,0,0,0,0,0],"split_type":[0,0,0,0,0,0,0,0,0,0,0,0,0,0,0,0,0,0,0,0,0,0,0,0,0,0,0,0,0,0,0],"sum_hessian":[1.8396215E3,6.2231555E2,1.2173059E3,3.6731253E2,2.5500302E2,2.985018E1,1.1874557E3,2.4980853E0,3.6481442E2,1.0305887E2,1.5194415E2,1.5241861E1,1.4608319E1,6.8331976E2,5.0413596E2,1.2806275E0,1.2174579E0,2.0732797E2,1.5748647E2,2.448834E1,7.8570526E1,5.0724598E1,1.0121956E2,3.3129086E0,1.1928953E1,2.3327491E0,1.227557E1,5.150035E2,1.6831628E2,2.8702225E2,2.171137E2],"tree_param":{"num_deleted":"0","num_feature":"64","num_nodes":"31","size_leaf_vector":"1"}},{"base_weights":[1.4238261E-2,-1.035691E-1,3.629762E-2,-1.7994748E-2,-2.0860888E-1,-2.9578686E-1,4.3713618E-2,-2.956199E-1,1.4621736E-2,-2.6737162E-1,-1.1715364E-1,-3.2772648E-1,1.0139951E-1,5.5462144E-2,-1.7554288E-1,-1.6477086E-1,-3.8451824E-2,2.1854293E-2,-5.6823485E-2,-2.5260197E-2,-9.105262E-2,2.4232112E-1,-4.344834E-2,-1.19946845E-1,-3.7469953E-2,-1.2769602E-1,1.1752272E-1,3.0174742E-2,1.7843385E-3,-1.0959043E-1,-2.2603847E-2],"categories":[],"categories_nodes":[],"categories_segments":[],"categories_sizes":[],"default_left":[0,0,0,0,0,0,0,0,0,0,0,0,0,0,0,0,0,0,0,0,0,0,0,0,0,0,0,0,0,0,0],"id":31,"left_children":[1,3,5,7,9,11,13,15,17,19,21,23,25,27,29,-1,-1,-1,-1,-1,-1,-1,-1,-1,-1,-1,-1,-1,-1,-1,-1],"loss_changes":[9.842437E0,5.365775E0,7.867973E0,2.9950361E0,1.4094152E0,9.1872644E-1,8.04862E0,1.4061925E0,3.5363133E0,1.0496473E0,2.8467681E0,8.982506E-1,1.0786223E0,6.618602E0,2.9947448E0,0E0,0E0,0E0,0E0,0E0,0E0,0E0,0E0,0E0,0E0,0E0,0E0,0E0,0E0,0E0,0E0],"parents":[2147483647,0,0,1,1,2,2,3,3,4,4,5,5,6,6,7,7,8,8,9,9,10,10,11,11,12,12,13,13,14,14],"right_children":[2,4,6,8,10,12,14,16,18,20,22,24,26,28,30,-1,-1,-1,-1,-1,-1,-1,-1,-1,-1,-1,-1,-1,-1,-1,-1],"split_conditions":[2E0,1E0,3.3333335E-2,1.563E3,9.827E3,3E0,2.1052632E-1,1E0,1.6862746E-1,1.5686275E-2,7.843138E-3,4.1401E4,1.1764706E-2,1E0,1E0,-1.6477086E-1,-3.8451824E-2,2.1854293E-2,-5.6823485E-2,-2.5260197E-2,-9.105262E-2,2.4232112E-1,-4.344834E-2,-1.19946845E-1,-3.7469953E-2,-1.2769602E-1,1.1752272E-1,3.0174742E-2,1.7843385E-3,-1.0959043E-1,-2.2603847E-2],"split_indices":[8,16,14,0,0,5,10,45,2,2,2,12,2,22,35,0,0,0,0,0,0,0,0,0,0,0,0,0,0,0,0],"split_type":[0,0,0,0,0,0,0,0,0,0,0,0,0,0,0,0,0,0,0,0,0,0,0,0,0,0,0,0,0,0,0],"sum_hessian":[3.7849204E3,5.963635E2,3.1885571E3,3.292774E2,2.670861E2,6.880099E1,3.119756E3,3.3770023E1,2.955074E2,1.6143542E2,1.0565067E2,6.3842026E1,4.9589586E0,2.9617996E3,1.5795648E2,1.2522829E1,2.1247192E1,2.3040005E2,6.510733E1,2.7149677E1,1.3428575E2,2.250483E0,1.0340019E2,4.638342E1,1.7458607E1,1.5959072E0,3.3630514E0,1.5491205E3,1.4126791E3,5.366903E1,1.0428746E2],"tree_param":{"num_deleted":"0","num_feature":"64","num_nodes":"31","size_leaf_vector":"1"}},{"base_weights":[6.1724477E-2,4.901144E-2,1.471383E-1,-1.8081881E-1,5.367217E-2,2.5994226E-1,9.352518E-2,-1.3011293E-1,-1.6291249E-1,7.456095E-2,1.0300481E-2,2.3257768E-1,9.7020936E-1,1.1909477E-1,-2.0619534E-1,-6.8616E-2,5.233735E-2,2.0489993E-2,7.861125E-2,1.950586E-2,-1.7726634E-2,-1.5333036E-1,7.418347E-2,1.6860703E-1,3.8526225E-1,5.1941723E-2,-5.8198003E-3,2.6774405E-2,-1.161759E-1],"categories":[],"categories_nodes":[],"categories_segments":[],"categories_sizes":[],"default_left":[0,0,0,0,0,0,0,0,0,0,0,0,0,0,0,0,0,0,0,0,0,0,0,0,0,0,0,0,0],"id":32,"left_children":[1,3,5,7,9,11,13,15,-1,17,19,21,23,25,27,-1,-1,-1,-1,-1,-1,-1,-1,-1,-1,-1,-1,-1,-1],"loss_changes":[4.781048E0,4.122822E0,3.4277391E0,1.3353012E0,3.409583E0,3.337513E0,3.0016873E0,2.0960703E0,0E0,2.964077E0,4.654254E0,2.0706272E0,1.0951853E-1,2.6871767E0,1.6875805E0,0E0,0E0,0E0,0E0,0E0,0E0,0E0,0E0,0E0,0E0,0E0,0E0,0E0,0E0],"parents":[2147483647,0,0,1,1,2,2,3,3,4,4,5,5,6,6,7,7,9,9,10,10,11,11,12,12,13,13,14,14],"right_children":[2,4,6,8,10,12,14,16,-1,18,20,22,24,26,28,-1,-1,-1,-1,-1,-1,-1,-1,-1,-1,-1,-1,-1,-1],"split_conditions":[2.3333333E-1,3.3333335E-2,2E0,3E0,2.3529412E-2,1.4704E4,6.333333E-1,5.490196E-2,-1.6291249E-1,1.25E-1,1E0,1.16E2,1E0,1.5686275E-2,4.899E3,-6.8616E-2,5.233735E-2,2.0489993E-2,7.861125E-2,1.950586E-2,-1.7726634E-2,-1.5333036E-1,7.418347E-2,1.6860703E-1,3.8526225E-1,5.1941723E-2,-5.8198003E-3,2.6774405E-2,-1.161759E-1],"split_indices":[14,14,3,4,2,0,14,2,0,13,16,0,29,2,0,0,0,0,0,0,0,0,0,0,0,0,0,0,0],"split_type":[0,0,0,0,0,0,0,0,0,0,0,0,0,0,0,0,0,0,0,0,0,0,0,0,0,0,0,0,0],"sum_hessian":[4.4086084E3,3.8388113E3,5.697969E2,7.554879E1,3.7632625E3,1.8232658E2,3.8747028E2,6.746402E1,8.084766E0,2.5394753E3,1.2237872E3,1.7684087E2,5.4857225E0,3.5756827E2,2.990201E1,5.1152164E1,1.6311857E1,2.4587278E3,8.0747444E1,6.842576E2,5.395296E2,2.773357E0,1.740675E2,3.5981517E0,1.8875706E0,2.5702118E2,1.0054707E2,1.1554639E1,1.834737E1],"tree_param":{"num_deleted":"0","num_feature":"64","num_nodes":"29","size_leaf_vector":"1"}},{"base_weights":[2.4580123E-2,2.8644323E-3,1.4182882E-1,1.5516598E-2,-9.0135224E-2,1.292282E-1,6.0328287E-1,5.6321483E-2,-2.3584368E-2,-1.3461141E-1,2.8795365E-2,1.2477754E-1,3.2217783E-1,9.107974E-1,-1.8099295E-1,9.496003E-2,1.2372508E-2,-1.0780214E-2,3.8964853E-2,-2.9962312E-2,-1.3992289E-1,-3.1483088E-2,7.66071E-2,4.317064E-2,-2.574738E-2,4.213274E-1,1.53225E-1,6.9991946E-2,-1.4575894E-1],"categories":[],"categories_nodes":[],"categories_segments":[],"categories_sizes":[],"default_left":[0,0,0,0,0,0,0,0,0,0,0,0,0,0,0,0,0,0,0,0,0,0,0,0,0,0,0,0,0],"id":33,"left_children":[1,3,5,7,9,11,13,15,17,19,21,23,-1,25,27,-1,-1,-1,-1,-1,-1,-1,-1,-1,-1,-1,-1,-1,-1],"loss_changes":[9.887716E0,3.8581185E0,3.4506807E0,4.6060605E0,2.0809097E0,2.3550873E0,3.9894214E0,5.529717E0,2.7992513E0,3.2493658E0,3.2901123E0,2.3901148E0,0E0,1.5649405E0,7.828862E-1,0E0,0E0,0E0,0E0,0E0,0E0,0E0,0E0,0E0,0E0,0E0,0E0,0E0,0E0],"parents":[2147483647,0,0,1,1,2,2,3,3,4,4,5,5,6,6,7,7,8,8,9,9,10,10,11,11,13,13,14,14],"right_children":[2,4,6,8,10,12,14,16,18,20,22,24,-1,26,28,-1,-1,-1,-1,-1,-1,-1,-1,-1,-1,-1,-1,-1,-1],"split_conditions":[2.3333333E-1,3E0,2.1568628E-1,1E0,5.882353E-2,3E0,1E0,7.843138E-3,1E0,3E0,4.1336E4,6.27451E-2,3.2217783E-1,2.3921569E-1,2E0,9.496003E-2,1.2372508E-2,-1.0780214E-2,3.8964853E-2,-2.9962312E-2,-1.3992289E-1,-3.1483088E-2,7.66071E-2,4.317064E-2,-2.574738E-2,4.213274E-1,1.53225E-1,6.9991946E-2,-1.4575894E-1],"split_indices":[14,8,2,32,2,9,11,2,46,4,12,2,0,2,4,0,0,0,0,0,0,0,0,0,0,0,0,0,0],"split_type":[0,0,0,0,0,0,0,0,0,0,0,0,0,0,0,0,0,0,0,0,0,0,0,0,0,0,0,0,0],"sum_hessian":[3.8825793E3,3.2767207E3,6.058587E2,2.8850557E3,3.916651E2,5.9100073E2,1.4858003E1,1.4115516E3,1.4735039E3,2.849654E2,1.06699684E2,5.893562E2,1.6444983E0,1.0557201E1,4.3008013E0,7.622624E1,1.3353254E3,1.3644694E3,1.09034515E2,2.5913657E2,2.5828846E1,6.743167E1,3.9268013E1,5.4058307E2,4.8773125E1,3.6019864E0,6.955215E0,1.9227033E0,2.3780978E0],"tree_param":{"num_deleted":"0","num_feature":"64","num_nodes":"29","size_leaf_vector":"1"}},{"base_weights":[5.96386E-2,1.5470813E-1,-3.7286778E-3,2.3612952E-1,8.471549E-2,2.3134561E-2,-2.2800638E-1,4.153993E-1,1.6838473E-1,1.635112E-1,-2.6029706E-2,4.1007808E-1,9.839887E-3,-2.4247403E-1,4.585847E-1,1.560882E-1,3.682249E-2,-4.8598596E-3,6.550096E-2,3.74978E-2,1.0803899E-1,-4.478026E-2,1.3237185E-2,8.064792E-2,1.5971486E-1,-4.102706E-2,1.2094834E-2,-9.2022255E-2,-2.4624815E-2,-6.311483E-2,3.4436664E-1],"categories":[],"categories_nodes":[],"categories_segments":[],"categories_sizes":[],"default_left":[0,0,0,0,0,0,0,0,0,0,0,0,0,0,0,0,0,0,0,0,0,0,0,0,0,0,0,0,0,0,0],"id":34,"left_children":[1,3,5,7,9,11,13,15,17,19,21,23,25,27,29,-1,-1,-1,-1,-1,-1,-1,-1,-1,-1,-1,-1,-1,-1,-1,-1],"loss_changes":[2.6296827E1,9.92931E0,1.5791525E1,9.7242775E0,8.210094E0,1.2037915E1,2.8961267E0,6.7049675E0,5.4156075E0,4.1171656E0,3.3938324E0,1.1997404E0,1.0120907E1,2.8118477E0,3.0689337E0,0E0,0E0,0E0,0E0,0E0,0E0,0E0,0E0,0E0,0E0,0E0,0E0,0E0,0E0,0E0,0E0],"parents":[2147483647,0,0,1,1,2,2,3,3,4,4,5,5,6,6,7,7,8,8,9,9,10,10,11,11,12,12,13,13,14,14],"right_children":[2,4,6,8,10,12,14,16,18,20,22,24,26,28,30,-1,-1,-1,-1,-1,-1,-1,-1,-1,-1,-1,-1,-1,-1,-1,-1],"split_conditions":[1E0,1E0,2.3333333E-1,6.666667E-2,2E0,3.3333335E-2,1E0,1.1312E4,2E0,1E1,1E0,1E0,7.843138E-3,1.5686275E-2,1.0526316E-1,1.560882E-1,3.682249E-2,-4.8598596E-3,6.550096E-2,3.74978E-2,1.0803899E-1,-4.478026E-2,1.3237185E-2,8.064792E-2,1.5971486E-1,-4.102706E-2,1.2094834E-2,-9.2022255E-2,-2.4624815E-2,-6.311483E-2,3.4436664E-1],"split_indices":[38,45,14,14,5,14,47,0,4,11,25,35,2,2,10,0,0,0,0,0,0,0,0,0,0,0,0,0,0,0,0],"split_type":[0,0,0,0,0,0,0,0,0,0,0,0,0,0,0,0,0,0,0,0,0,0,0,0,0,0,0,0,0,0,0],"sum_hessian":[4.3640317E3,1.744831E3,2.6192004E3,8.054682E2,9.3936285E2,2.339839E3,2.7936133E2,2.1949565E2,5.8597253E2,5.485737E2,3.9078915E2,7.673085E1,2.2631084E3,2.7422968E2,5.131649E0,1.6100885E2,5.8486797E1,1.2494512E2,4.6102744E2,4.6007797E2,8.849573E1,1.4135149E2,2.4943767E2,3.7091415E1,3.9639435E1,3.8890585E2,1.8742025E3,1.9513074E2,7.909894E1,2.9568372E0,2.1748118E0],"tree_param":{"num_deleted":"0","num_feature":"64","num_nodes":"31","size_leaf_vector":"1"}},{"base_weights":[-3.457702E-1,-2.886853E-1,-3.7552136E-1,-3.2989278E-1,-2.3011224E-1,-1.0239786E-1,-3.827167E-1,-3.086968E-1,-4.5965645E-1,-1.9257486E-1,-3.6227894E-1,4.1516155E-2,-3.9003655E-1,-4.2271084E-1,-3.2894573E-1,8.361733E-2,-9.4143555E-2,-1.5056728E-1,7.192175E-2,-4.5971572E-2,-1.0356721E-1,6.258843E-2,-1.1341736E-1,9.901202E-2,-7.072424E-2,-2.1259766E-2,-1.4222543E-1,-1.287313E-1,-6.605974E-2,-9.1792636E-2,-1.30125E-1],"categories":[],"categories_nodes":[],"categories_segments":[],"categories_sizes":[],"default_left":[0,0,0,0,0,0,0,0,0,0,0,0,0,0,0,0,0,0,0,0,0,0,0,0,0,0,0,0,0,0,0],"id":35,"left_children":[1,3,5,7,9,11,13,15,17,19,21,23,25,27,29,-1,-1,-1,-1,-1,-1,-1,-1,-1,-1,-1,-1,-1,-1,-1,-1],"loss_changes":[2.7055054E0,1.3046646E0,2.0948029E0,7.7528E-1,1.1185703E0,1.2265042E0,2.1354218E0,9.5788383E-1,1.4429369E0,1.0800529E0,5.4592276E-1,1.709067E0,2.3054194E-1,6.8626404E-1,9.641609E-1,0E0,0E0,0E0,0E0,0E0,0E0,0E0,0E0,0E0,0E0,0E0,0E0,0E0,0E0,0E0,0E0],"parents":[2147483647,0,0,1,1,2,2,3,3,4,4,5,5,6,6,7,7,8,8,9,9,10,10,11,11,12,12,13,13,14,14],"right_children":[2,4,6,8,10,12,14,16,18,20,22,24,26,28,30,-1,-1,-1,-1,-1,-1,-1,-1,-1,-1,-1,-1,-1,-1,-1,-1],"split_conditions":[1E0,2E0,3.3333335E-2,2E-1,1.1674E4,4.1332E4,2E0,4.1325E4,1E0,1.2156863E-1,3.921569E-3,2E0,2E0,1E0,2E0,8.361733E-2,-9.4143555E-2,-1.5056728E-1,7.192175E-2,-4.5971572E-2,-1.0356721E-1,6.258843E-2,-1.1341736E-1,9.901202E-2,-7.072424E-2,-2.1259766E-2,-1.4222543E-1,-1.287313E-1,-6.605974E-2,-9.1792636E-2,-1.30125E-1],"split_indices":[25,5,14,14,0,12,1,12,50,2,2,7,8,50,11,0,0,0,0,0,0,0,0,0,0,0,0,0,0,0,0],"split_type":[0,0,0,0,0,0,0,0,0,0,0,0,0,0,0,0,0,0,0,0,0,0,0,0,0,0,0,0,0,0,0],"sum_hessian":[1.6558633E3,5.709875E2,1.0848759E3,3.3246127E2,2.385262E2,2.8237938E1,1.0566378E3,2.8868546E2,4.3775826E1,1.8767943E2,5.0846783E1,1.9391481E1,8.8464575E0,6.020096E2,4.546283E2,2.03031E0,2.8665512E2,4.1549187E1,2.226639E0,1.508187E2,3.686073E1,1.0388105E0,4.9807972E1,9.409497E0,9.981983E0,2.2281768E0,6.6182804E0,5.825006E2,1.9508944E1,3.7611368E2,7.85146E1],"tree_param":{"num_deleted":"0","num_feature":"64","num_nodes":"31","size_leaf_vector":"1"}},{"base_weights":[1.3280005E-2,6.385136E-4,2.0587353E-1,3.4533236E-2,-8.428296E-2,2.7232096E-1,-1.3726608E-1,1.2741627E-1,-1.5957339E-2,2.4677752E-2,-1.4558409E-1,3.6502472E-1,2.6338367E-2,9.024877E-2,-4.1104105E-1,4.593835E-2,-3.292128E-2,-2.7932888E-2,1.8184662E-2,-6.923023E-2,2.3952113E-2,-5.7919748E-2,-7.3745125E-3,5.9720583E-2,1.4066337E-1,8.976631E-2,-4.3027773E-2,-1.23656E-1,8.578625E-2,-1.5312667E-1,1.5386397E-1],"categories":[],"categories_nodes":[],"categories_segments":[],"categories_sizes":[],"default_left":[0,0,0,0,0,0,0,0,0,0,0,0,0,0,0,0,0,0,0,0,0,0,0,0,0,0,0,0,0,0,0],"id":36,"left_children":[1,3,5,7,9,11,13,15,17,19,21,23,25,27,29,-1,-1,-1,-1,-1,-1,-1,-1,-1,-1,-1,-1,-1,-1,-1,-1],"loss_changes":[9.20583E0,1.0219166E1,5.347683E0,1.1902174E1,6.7684965E0,4.447378E0,2.431963E0,5.466338E0,9.722619E0,5.168744E0,3.7199717E0,2.351904E0,2.5711908E0,2.2632353E0,1.8805926E0,0E0,0E0,0E0,0E0,0E0,0E0,0E0,0E0,0E0,0E0,0E0,0E0,0E0,0E0,0E0,0E0],"parents":[2147483647,0,0,1,1,2,2,3,3,4,4,5,5,6,6,7,7,8,8,9,9,10,10,11,11,12,12,13,13,14,14],"right_children":[2,4,6,8,10,12,14,16,18,20,22,24,26,28,30,-1,-1,-1,-1,-1,-1,-1,-1,-1,-1,-1,-1,-1,-1,-1,-1],"split_conditions":[3E0,2.3529412E-2,2.1E2,2E0,1E0,1.01960786E-1,7.836E3,5.263158E-2,2E0,3.529412E-2,1.1031E4,6.128E3,2E0,1.5686275E-2,1.0526316E-1,4.593835E-2,-3.292128E-2,-2.7932888E-2,1.8184662E-2,-6.923023E-2,2.3952113E-2,-5.7919748E-2,-7.3745125E-3,5.9720583E-2,1.4066337E-1,8.976631E-2,-4.3027773E-2,-1.23656E-1,8.578625E-2,-1.5312667E-1,1.5386397E-1],"split_indices":[5,2,11,3,25,2,0,10,1,2,0,0,4,2,10,0,0,0,0,0,0,0,0,0,0,0,0,0,0,0,0],"split_type":[0,0,0,0,0,0,0,0,0,0,0,0,0,0,0,0,0,0,0,0,0,0,0,0,0,0,0,0,0,0,0],"sum_hessian":[3.7801956E3,3.5482952E3,2.3190039E2,2.5364963E3,1.0117989E3,1.9445201E2,3.7448368E1,8.927182E2,1.6437781E3,3.645035E2,6.472954E2,1.4087598E2,5.3576042E1,2.08182E1,1.6630167E1,8.057187E2,8.69995E1,8.1868365E2,8.250944E2,6.416892E1,3.003346E2,4.6444864E2,1.8284676E2,5.5347755E1,8.552822E1,2.0255062E1,3.332098E1,5.5257516E0,1.5292448E1,1.5419159E1,1.2110074E0],"tree_param":{"num_deleted":"0","num_feature":"64","num_nodes":"31","size_leaf_vector":"1"}},{"base_weights":[5.1092472E-2,9.483557E-2,2.5214272E-2,-7.453548E-2,1.0799978E-1,5.218669E-2,-1.7809736E-2,-9.840788E-2,3.441603E-1,9.224072E-2,2.2332078E-1,-3.70135E-2,7.965807E-2,-3.6362156E-3,-3.142334E-1,-6.4805396E-2,3.2963206E-3,3.05591E-1,-3.2978706E-2,2.389857E-2,6.999463E-2,5.982668E-2,2.3764518E-1,-1.5410477E-2,1.0938948E-1,-5.6095812E-2,2.6765179E-2,1.9782558E-3,-7.207375E-2,-1.5999997E-1,-4.4025943E-2],"categories":[],"categories_nodes":[],"categories_segments":[],"categories_sizes":[],"default_left":[0,0,0,0,0,0,0,0,0,0,0,0,0,0,0,0,0,0,0,0,0,0,0,0,0,0,0,0,0,0,0],"id":37,"left_children":[1,3,5,7,9,11,13,15,17,19,21,23,25,27,29,-1,-1,-1,-1,-1,-1,-1,-1,-1,-1,-1,-1,-1,-1,-1,-1],"loss_changes":[5.028201E0,3.69024E0,3.2427244E0,1.2302417E0,2.7650032E0,4.2111874E0,4.524604E0,1.469297E0,2.1574864E0,2.37743E0,2.337574E0,2.3540182E0,3.3641224E0,2.4925466E0,1.7250886E0,0E0,0E0,0E0,0E0,0E0,0E0,0E0,0E0,0E0,0E0,0E0,0E0,0E0,0E0,0E0,0E0],"parents":[2147483647,0,0,1,1,2,2,3,3,4,4,5,5,6,6,7,7,8,8,9,9,10,10,11,11,12,12,13,13,14,14],"right_children":[2,4,6,8,10,12,14,16,18,20,22,24,26,28,30,-1,-1,-1,-1,-1,-1,-1,-1,-1,-1,-1,-1,-1,-1,-1,-1],"split_conditions":[2E0,1E0,1.5686275E-2,1.4509805E-1,2.3333333E-1,2E0,1E0,6.831E3,2E0,1.4901961E-1,1.4704E4,1E0,4.84E2,3.3333334E-1,3.9215688E-2,-6.4805396E-2,3.2963206E-3,3.05591E-1,-3.2978706E-2,2.389857E-2,6.999463E-2,5.982668E-2,2.3764518E-1,-1.5410477E-2,1.0938948E-1,-5.6095812E-2,2.6765179E-2,1.9782558E-3,-7.207375E-2,-1.5999997E-1,-4.4025943E-2],"split_indices":[3,15,2,2,14,4,46,0,7,2,0,48,0,14,2,0,0,0,0,0,0,0,0,0,0,0,0,0,0,0,0],"split_type":[0,0,0,0,0,0,0,0,0,0,0,0,0,0,0,0,0,0,0,0,0,0,0,0,0,0,0,0,0,0,0],"sum_hessian":[4.443015E3,1.6504761E3,2.7925393E3,1.18693985E2,1.5317821E3,1.7163314E3,1.0762079E3,1.1301526E2,5.6787214E0,1.3492075E3,1.8257452E2,4.04044E2,1.3122874E3,1.0280632E3,4.8144653E1,5.399314E1,5.902212E1,1.7846543E0,3.8940673E0,1.2401914E3,1.09016075E2,1.7650934E2,6.06519E0,3.9094382E2,1.3100186E1,4.477491E1,1.2675125E3,9.863865E2,4.1676727E1,1.9911598E1,2.8233057E1],"tree_param":{"num_deleted":"0","num_feature":"64","num_nodes":"31","size_leaf_vector":"1"}},{"base_weights":[2.2485362E-2,9.150995E-4,1.05415136E-1,2.1475403E-2,-4.5669425E-2,9.912342E-2,5.9929514E-1,-3.017976E-1,2.5828144E-2,-5.510617E-2,2.705258E-1,-7.260712E-2,1.1663414E-1,-1.0627451E-2,8.6848485E-1,-1.495082E-1,-8.2896175E-3,2.0564323E-2,-1.4498024E-3,-5.7293892E-2,-9.693358E-3,1.3646032E-1,-1.1535766E-1,8.546134E-3,-1.1914051E-1,3.3673823E-2,2.5523224E-1,-1.1524827E-1,8.677504E-2,3.6014712E-1,4.1792147E-2],"categories":[],"categories_nodes":[],"categories_segments":[],"categories_sizes":[],"default_left":[0,0,0,0,0,0,0,0,0,0,0,0,0,0,0,0,0,0,0,0,0,0,0,0,0,0,0,0,0,0,0],"id":38,"left_children":[1,3,5,7,9,11,13,15,17,19,21,23,25,27,29,-1,-1,-1,-1,-1,-1,-1,-1,-1,-1,-1,-1,-1,-1,-1,-1],"loss_changes":[6.950377E0,2.9552884E0,2.4327402E0,3.0199962E0,2.8341095E0,2.3934941E0,1.6330934E0,1.5231562E0,2.768187E0,2.837921E0,3.5016496E0,2.4392653E0,2.2243366E0,5.610164E-1,1.4969039E0,0E0,0E0,0E0,0E0,0E0,0E0,0E0,0E0,0E0,0E0,0E0,0E0,0E0,0E0,0E0,0E0],"parents":[2147483647,0,0,1,1,2,2,3,3,4,4,5,5,6,6,7,7,8,8,9,9,10,10,11,11,12,12,13,13,14,14],"right_children":[2,4,6,8,10,12,14,16,18,20,22,24,26,28,30,-1,-1,-1,-1,-1,-1,-1,-1,-1,-1,-1,-1,-1,-1,-1,-1],"split_conditions":[2E-1,4.1332E4,3.8E2,4.1325E4,2.4705882E-1,1.393E3,1.5686275E-2,1E-1,2E0,2.272E3,1.3333334E-1,1.019E3,3E0,5.358E3,5.5E2,-1.495082E-1,-8.2896175E-3,2.0564323E-2,-1.4498024E-3,-5.7293892E-2,-9.693358E-3,1.3646032E-1,-1.1535766E-1,8.546134E-3,-1.1914051E-1,3.3673823E-2,2.5523224E-1,-1.1524827E-1,8.677504E-2,3.6014712E-1,4.1792147E-2],"split_indices":[14,12,11,12,2,0,2,14,6,0,14,0,9,0,11,0,0,0,0,0,0,0,0,0,0,0,0,0,0,0,0],"split_type":[0,0,0,0,0,0,0,0,0,0,0,0,0,0,0,0,0,0,0,0,0,0,0,0,0,0,0,0,0,0,0],"sum_hessian":[3.884514E3,3.0834983E3,8.0101544E2,2.1396797E3,9.4381885E2,7.92125E2,8.89046E0,2.7519285E1,2.1121604E3,9.172689E2,2.6549881E1,7.300512E1,7.191199E2,3.016432E0,5.874028E0,1.5551733E1,1.1967553E1,8.820156E2,1.2301447E3,1.3071875E2,7.8655023E2,2.0957663E1,5.59222E0,5.6360413E1,1.6644707E1,7.1599316E2,3.126704E0,1.2180928E0,1.7983394E0,3.5921202E0,2.281908E0],"tree_param":{"num_deleted":"0","num_feature":"64","num_nodes":"31","size_leaf_vector":"1"}},{"base_weights":[4.7640335E-2,-4.6165496E-2,8.941161E-2,1.6083696E-1,-8.590712E-2,1.045429E-1,-1.4033064E-1,2.09279E-1,-1.648246E-1,-1.4809102E-1,4.005466E-2,7.986416E-2,2.2501732E-1,-7.243684E-2,-4.3136892E-1,1.04483984E-1,1.2977293E-3,-1.6849555E-2,-6.605881E-2,-2.6741454E-2,5.616827E-2,4.7090035E-3,4.1446242E-2,6.942763E-2,-9.8318934E-2,-2.6932104E-2,2.3765665E-1,3.48162E-2,-1.4882067E-1],"categories":[],"categories_nodes":[],"categories_segments":[],"categories_sizes":[],"default_left":[0,0,0,0,0,0,0,0,0,0,0,0,0,0,0,0,0,0,0,0,0,0,0,0,0,0,0,0,0],"id":39,"left_children":[1,3,5,7,9,11,13,15,-1,17,19,21,23,25,27,-1,-1,-1,-1,-1,-1,-1,-1,-1,-1,-1,-1,-1,-1],"loss_changes":[1.7133121E1,1.1099163E1,1.0530256E1,7.594236E0,8.865735E0,8.421614E0,3.670628E0,5.816633E0,0E0,5.008478E0,7.139818E0,8.815752E0,1.7833462E0,2.3662076E0,1.3055463E0,0E0,0E0,0E0,0E0,0E0,0E0,0E0,0E0,0E0,0E0,0E0,0E0,0E0,0E0],"parents":[2147483647,0,0,1,1,2,2,3,3,4,4,5,5,6,6,7,7,9,9,10,10,11,11,12,12,13,13,14,14],"right_children":[2,4,6,8,10,12,14,16,-1,18,20,22,24,26,28,-1,-1,-1,-1,-1,-1,-1,-1,-1,-1,-1,-1,-1,-1],"split_conditions":[1.1764706E-2,1E0,3E0,1E0,5.263158E-2,5.263158E-2,1.882353E-1,8.473E3,-1.648246E-1,1E-1,4.1327E4,1E0,3.2E2,1.5294118E-1,7.84E2,1.04483984E-1,1.2977293E-3,-1.6849555E-2,-6.605881E-2,-2.6741454E-2,5.616827E-2,4.7090035E-3,4.1446242E-2,6.942763E-2,-9.8318934E-2,-2.6932104E-2,2.3765665E-1,3.48162E-2,-1.4882067E-1],"split_indices":[2,15,5,50,10,10,2,0,0,14,12,16,11,2,0,0,0,0,0,0,0,0,0,0,0,0,0,0,0],"split_type":[0,0,0,0,0,0,0,0,0,0,0,0,0,0,0,0,0,0,0,0,0,0,0,0,0,0,0,0,0],"sum_hessian":[4.370437E3,1.3464983E3,3.0239387E3,2.1638179E2,1.1301165E3,2.837594E3,1.8634477E2,2.0322629E2,1.3155499E1,7.5648486E2,3.7363168E2,2.3565303E3,4.810637E2,1.5210938E2,3.4235394E1,1.206805E2,8.254579E1,3.333191E2,4.2316577E2,1.9917987E2,1.744518E2,1.1223169E3,1.2342134E3,4.7612518E2,4.938503E0,1.499979E2,2.111476E0,3.5347056E0,3.0700687E1],"tree_param":{"num_deleted":"0","num_feature":"64","num_nodes":"29","size_leaf_vector":"1"}},{"base_weights":[-3.2124656E-1,-3.3296427E-1,-1.5398623E-1,-3.2290334E-1,-1.5028238E-1,-6.635013E-2,-4.335247E-1,-2.8598282E-1,-3.701678E-1,2.2222921E-2,-3.8976687E-1,-1.543003E-1,2.3423822E-1,-6.4064786E-2,-9.884315E-2,-1.1244154E-1,-1.3655032E-2,-2.4585657E-2,1.0638777E-1,-3.276625E-3,-1.5015522E-1,2.0702557E-1,-8.9495525E-2],"categories":[],"categories_nodes":[],"categories_segments":[],"categories_sizes":[],"default_left":[0,0,0,0,0,0,0,0,0,0,0,0,0,0,0,0,0,0,0,0,0,0,0],"id":40,"left_children":[1,3,5,7,-1,9,11,13,15,17,19,-1,21,-1,-1,-1,-1,-1,-1,-1,-1,-1,-1],"loss_changes":[2.8898773E0,2.2068634E0,2.4236634E0,2.2065735E0,0E0,2.2257407E0,1.4000654E0,2.287407E0,8.5279083E-1,2.165707E0,6.9493103E-1,0E0,9.941052E-1,0E0,0E0,0E0,0E0,0E0,0E0,0E0,0E0,0E0,0E0],"parents":[2147483647,0,0,1,1,2,2,3,3,5,5,6,6,7,7,8,8,9,9,10,10,12,12],"right_children":[2,4,6,8,-1,10,12,14,16,18,20,-1,22,-1,-1,-1,-1,-1,-1,-1,-1,-1,-1],"split_conditions":[3E0,1E0,1.2156863E-1,1.3333334E-1,-1.5028238E-1,1.1031E4,2E-1,1.1764706E-2,2.8235295E-1,4.1342E4,1.1764706E-2,-1.543003E-1,3E-1,-6.4064786E-2,-9.884315E-2,-1.1244154E-1,-1.3655032E-2,-2.4585657E-2,1.0638777E-1,-3.276625E-3,-1.5015522E-1,2.0702557E-1,-8.9495525E-2],"split_indices":[5,46,2,14,0,0,14,2,2,12,2,0,14,0,0,0,0,0,0,0,0,0,0],"split_type":[0,0,0,0,0,0,0,0,0,0,0,0,0,0,0,0,0,0,0,0,0,0,0],"sum_hessian":[1.4996598E3,1.4005511E3,9.910865E1,1.3241631E3,7.638808E1,7.639574E1,2.271292E1,7.47391E2,5.767721E2,6.0702602E1,1.56931305E1,2.0465984E1,2.246935E0,2.826269E2,4.6476413E2,5.6849713E2,8.274953E0,4.6791576E1,1.3911027E1,3.798432E0,1.1894699E1,1.0512825E0,1.1956524E0],"tree_param":{"num_deleted":"0","num_feature":"64","num_nodes":"23","size_leaf_vector":"1"}},{"base_weights":[1.1883595E-2,-2.6301358E-2,6.230858E-2,9.064856E-2,-5.641982E-2,1.2665963E-1,2.9859284E-2,1.2723471E-1,-1.9135955E-1,1.2607642E-2,-1.0137393E-1,1.4635482E-1,-1.2135192E-1,1.1257651E-1,-4.066333E-2,-4.3113497E-3,6.5866575E-2,-8.6864024E-2,7.1824595E-2,2.692601E-2,-3.9312884E-2,-4.2161983E-3,-4.41596E-2,5.244368E-2,-6.3365134E-3,-5.7874907E-2,2.3614357E-1,4.2615764E-2,-5.0997306E-2,-2.1835167E-2,3.3219445E-2],"categories":[],"categories_nodes":[],"categories_segments":[],"categories_sizes":[],"default_left":[0,0,0,0,0,0,0,0,0,0,0,0,0,0,0,0,0,0,0,0,0,0,0,0,0,0,0,0,0,0,0],"id":41,"left_children":[1,3,5,7,9,11,13,15,17,19,21,23,25,27,29,-1,-1,-1,-1,-1,-1,-1,-1,-1,-1,-1,-1,-1,-1,-1,-1],"loss_changes":[7.2695656E0,7.57363E0,3.3934298E0,4.5684514E0,5.3053164E0,2.6801786E0,6.3212714E0,5.107519E0,2.2254252E0,7.4924555E0,4.1404295E0,2.412467E0,2.794546E0,4.176983E0,2.854022E0,0E0,0E0,0E0,0E0,0E0,0E0,0E0,0E0,0E0,0E0,0E0,0E0,0E0,0E0,0E0,0E0],"parents":[2147483647,0,0,1,1,2,2,3,3,4,4,5,5,6,6,7,7,8,8,9,9,10,10,11,11,12,12,13,13,14,14],"right_children":[2,4,6,8,10,12,14,16,18,20,22,24,26,28,30,-1,-1,-1,-1,-1,-1,-1,-1,-1,-1,-1,-1,-1,-1,-1,-1],"split_conditions":[2E0,7.843138E-3,1E0,2.1052632E-1,2E0,1.5789473E-1,1.1764706E-2,1E0,1.2075E4,2.3529412E-2,1E0,1.4509805E-1,5.9E1,1E0,1.237E4,-4.3113497E-3,6.5866575E-2,-8.6864024E-2,7.1824595E-2,2.692601E-2,-3.9312884E-2,-4.2161983E-3,-4.41596E-2,5.244368E-2,-6.3365134E-3,-5.7874907E-2,2.3614357E-1,4.2615764E-2,-5.0997306E-2,-2.1835167E-2,3.3219445E-2],"split_indices":[5,2,25,10,3,10,2,35,0,2,25,2,11,46,0,0,0,0,0,0,0,0,0,0,0,0,0,0,0,0,0],"split_type":[0,0,0,0,0,0,0,0,0,0,0,0,0,0,0,0,0,0,0,0,0,0,0,0,0,0,0,0,0,0,0],"sum_hessian":[3.7736135E3,2.147711E3,1.6259027E3,4.394229E2,1.708288E3,5.440599E2,1.0818428E3,3.8944705E2,4.9975853E1,6.740293E2,1.0342587E3,5.0441312E2,3.9646755E1,4.9760123E2,5.842416E2,1.5403094E2,2.3541612E2,4.096621E1,9.0096445E0,4.387691E2,2.352602E2,3.5641312E2,6.778456E2,4.3111475E2,7.3298355E1,3.7481873E1,2.164881E0,4.510475E2,4.6553753E1,4.824106E2,1.0183099E2],"tree_param":{"num_deleted":"0","num_feature":"64","num_nodes":"31","size_leaf_vector":"1"}},{"base_weights":[4.254273E-2,8.110493E-2,1.9527202E-2,-5.899669E-2,9.1672994E-2,2.6616337E-2,-9.862384E-2,9.126989E-2,-1.2185137E-1,8.763885E-2,4.7564247E-1,3.211453E-2,-1.5529785E-1,-2.5350165E-1,8.649674E-2,4.0716707E-4,1.3995291E-1,-1.5712116E-2,-1.5126075E-1,3.1649604E-2,-8.673009E-3,-9.827012E-2,2.3604256E-1,3.9209044E-3,2.0612996E-2,1.9248357E-1,-7.096376E-2,-8.164963E-2,1.8259832E-1,-1.8492125E-2,1.0922899E-1],"categories":[],"categories_nodes":[],"categories_segments":[],"categories_sizes":[],"default_left":[0,0,0,0,0,0,0,0,0,0,0,0,0,0,0,0,0,0,0,0,0,0,0,0,0,0,0,0,0,0,0],"id":42,"left_children":[1,3,5,7,9,11,13,15,17,19,21,23,25,27,29,-1,-1,-1,-1,-1,-1,-1,-1,-1,-1,-1,-1,-1,-1,-1,-1],"loss_changes":[3.9666405E0,2.4792223E0,2.348942E0,1.1237411E0,2.365466E0,2.6490145E0,4.5742283E0,1.1908182E0,2.1913986E0,3.2067194E0,4.239518E0,1.7880282E0,5.1842446E0,1.5608354E0,3.0273902E0,0E0,0E0,0E0,0E0,0E0,0E0,0E0,0E0,0E0,0E0,0E0,0E0,0E0,0E0,0E0,0E0],"parents":[2147483647,0,0,1,1,2,2,3,3,4,4,5,5,6,6,7,7,8,8,9,9,10,10,11,11,12,12,13,13,14,14],"right_children":[2,4,6,8,10,12,14,16,18,20,22,24,26,28,30,-1,-1,-1,-1,-1,-1,-1,-1,-1,-1,-1,-1,-1,-1,-1,-1],"split_conditions":[2E0,1E0,1E0,1E0,4E2,2E0,1E0,9.803922E-2,1.9607844E-2,4.5E1,1E0,9.827E3,1.449E3,2E0,1.0672E4,4.0716707E-4,1.3995291E-1,-1.5712116E-2,-1.5126075E-1,3.1649604E-2,-8.673009E-3,-9.827012E-2,2.3604256E-1,3.9209044E-3,2.0612996E-2,1.9248357E-1,-7.096376E-2,-8.164963E-2,1.8259832E-1,-1.8492125E-2,1.0922899E-1],"split_indices":[3,15,46,38,11,9,35,2,2,11,38,0,0,9,0,0,0,0,0,0,0,0,0,0,0,0,0,0,0,0,0],"split_type":[0,0,0,0,0,0,0,0,0,0,0,0,0,0,0,0,0,0,0,0,0,0,0,0,0,0,0,0,0,0,0],"sum_hessian":[4.470092E3,1.6698153E3,2.8002764E3,1.1680041E2,1.5530149E3,2.6424995E3,1.5777684E2,3.4313972E1,8.2486435E1,1.5380834E3,1.4931506E1,2.5657747E3,7.67248E1,8.57044E1,7.207243E1,2.84908E1,5.823174E0,7.076465E1,1.1721784E1,1.3337896E3,2.0429381E2,4.1545925E0,1.0776914E1,1.6884407E3,8.7733405E2,6.4605417E0,7.026426E1,8.455824E1,1.1461627E0,4.750176E1,2.4570673E1],"tree_param":{"num_deleted":"0","num_feature":"64","num_nodes":"31","size_leaf_vector":"1"}},{"base_weights":[2.0575766E-2,4.5132744E-3,1.0475394E-1,-2.0668347E-1,8.514852E-3,9.429905E-2,4.640977E-1,2.2597954E-1,-2.457039E-1,3.3007436E-2,-2.5328832E-2,8.428056E-2,4.4928682E-1,6.200858E-1,-1.2971628E-1,-1.02556646E-1,2.0444589E-2,-9.582363E-2,1.1745344E-2,-1.0273517E-2,5.96382E-2,2.6686903E-2,-1.6174003E-1,2.0506774E-1,-5.301177E-2,2.7148044E-1,1.09610766E-1,-1.3543262E-1,6.94759E-2],"categories":[],"categories_nodes":[],"categories_segments":[],"categories_sizes":[],"default_left":[0,0,0,0,0,0,0,0,0,0,0,0,0,0,0,0,0,0,0,0,0,0,0,0,0,0,0,0,0],"id":43,"left_children":[1,3,5,7,9,11,13,-1,15,17,19,21,23,25,27,-1,-1,-1,-1,-1,-1,-1,-1,-1,-1,-1,-1,-1,-1],"loss_changes":[5.2553654E0,2.7613385E0,2.296134E0,2.4609087E0,2.6579795E0,2.1190205E0,1.6878498E0,0E0,1.8079371E0,4.0399866E0,2.697402E0,1.770864E0,2.5281293E0,6.790695E-1,6.20329E-1,0E0,0E0,0E0,0E0,0E0,0E0,0E0,0E0,0E0,0E0,0E0,0E0,0E0,0E0],"parents":[2147483647,0,0,1,1,2,2,3,3,4,4,5,5,6,6,8,8,9,9,10,10,11,11,12,12,13,13,14,14],"right_children":[2,4,6,8,10,12,14,-1,16,18,20,22,24,26,28,-1,-1,-1,-1,-1,-1,-1,-1,-1,-1,-1,-1,-1,-1],"split_conditions":[2.3333333E-1,3.3333335E-2,1E0,2.29E2,2E0,2.1568628E-1,1.0526316E-1,2.2597954E-1,3E0,4.1326E4,1E0,1E0,1E0,1E0,3.6666667E-1,-1.02556646E-1,2.0444589E-2,-9.582363E-2,1.1745344E-2,-1.0273517E-2,5.96382E-2,2.6686903E-2,-1.6174003E-1,2.0506774E-1,-5.301177E-2,2.7148044E-1,1.09610766E-1,-1.3543262E-1,6.94759E-2],"split_indices":[14,14,47,0,1,2,10,0,3,12,46,49,11,22,14,0,0,0,0,0,0,0,0,0,0,0,0,0,0],"split_type":[0,0,0,0,0,0,0,0,0,0,0,0,0,0,0,0,0,0,0,0,0,0,0,0,0,0,0,0,0],"sum_hessian":[3.8861355E3,3.2643088E3,6.218267E2,5.9757454E1,3.2045513E3,6.0547327E2,1.6353458E1,1.6191866E0,5.8138268E1,1.8591292E3,1.3454221E3,5.90058E2,1.5415241E1,1.2916264E1,3.4371953E0,4.443575E1,1.37025175E1,3.0981081E1,1.8281481E3,1.2947603E3,5.0661926E1,5.865163E2,3.5417352E0,1.1150357E1,4.2648835E0,4.8923955E0,8.023868E0,1.6862084E0,1.750987E0],"tree_param":{"num_deleted":"0","num_feature":"64","num_nodes":"29","size_leaf_vector":"1"}},{"base_weights":[3.8184922E-2,1.0753177E-1,-8.987597E-3,1.7211701E-1,5.165367E-2,1.6531503E-2,-1.6601272E-1,3.1935003E-1,1.16465606E-1,1.131506E-1,-3.682246E-2,6.7970976E-2,-5.983102E-2,-1.8653366E-1,5.524681E-1,1.0489506E-1,-1.0270407E-1,8.293881E-3,5.5709206E-2,2.6495533E-2,1.1824535E-1,-3.126994E-2,2.1749076E-2,4.7995625E-3,7.121166E-2,-2.4356687E-2,8.424944E-2,4.123017E-2,-6.315236E-2,2.4055554E-1,-4.883745E-2],"categories":[],"categories_nodes":[],"categories_segments":[],"categories_sizes":[],"default_left":[0,0,0,0,0,0,0,0,0,0,0,0,0,0,0,0,0,0,0,0,0,0,0,0,0,0,0,0,0,0,0],"id":44,"left_children":[1,3,5,7,9,11,13,15,17,19,21,23,25,27,29,-1,-1,-1,-1,-1,-1,-1,-1,-1,-1,-1,-1,-1,-1,-1,-1],"loss_changes":[1.431049E1,6.3824787E0,1.0438559E1,6.6904144E0,5.1782093E0,8.807374E0,5.4722548E0,4.623741E0,3.6684866E0,3.8814812E0,2.8866518E0,1.1789988E1,6.5898104E0,2.784607E0,1.979327E0,0E0,0E0,0E0,0E0,0E0,0E0,0E0,0E0,0E0,0E0,0E0,0E0,0E0,0E0,0E0,0E0],"parents":[2147483647,0,0,1,1,2,2,3,3,4,4,5,5,6,6,7,7,8,8,9,9,10,10,11,11,12,12,13,13,14,14],"right_children":[2,4,6,8,10,12,14,16,18,20,22,24,26,28,30,-1,-1,-1,-1,-1,-1,-1,-1,-1,-1,-1,-1,-1,-1,-1,-1],"split_conditions":[1E0,1E0,2E-1,6.666667E-2,2E0,2E0,1E0,1.4526E4,1E0,3E-1,2E0,2.3529412E-2,1E0,1E0,1E0,1.0489506E-1,-1.0270407E-1,8.293881E-3,5.5709206E-2,2.6495533E-2,1.1824535E-1,-3.126994E-2,2.1749076E-2,4.7995625E-3,7.121166E-2,-2.4356687E-2,8.424944E-2,4.123017E-2,-6.315236E-2,2.4055554E-1,-4.883745E-2],"split_indices":[38,45,14,14,5,5,47,0,16,14,1,2,46,15,22,0,0,0,0,0,0,0,0,0,0,0,0,0,0,0,0],"split_type":[0,0,0,0,0,0,0,0,0,0,0,0,0,0,0,0,0,0,0,0,0,0,0,0,0,0,0,0,0,0,0],"sum_hessian":[4.3733076E3,1.7700024E3,2.603305E3,8.200682E2,9.499343E2,2.2401409E3,3.631641E2,2.2364577E2,5.9642236E2,5.602463E2,3.896881E2,1.3385645E3,9.0157654E2,3.537994E2,9.364693E0,2.1430403E2,9.341737E0,2.6186624E2,3.3455615E2,5.1596454E2,4.428174E1,2.4107698E2,1.4861113E2,1.0251439E3,3.1342056E2,8.491034E2,5.2473125E1,2.40517E1,3.297477E2,6.853927E0,2.510766E0],"tree_param":{"num_deleted":"0","num_feature":"64","num_nodes":"31","size_leaf_vector":"1"}},{"base_weights":[-2.9678094E-1,-2.3201337E-1,-3.3154145E-1,-2.2072217E-1,-1.5129751E-1,-3.7532783E-1,-2.7401167E-1,-2.6591375E-1,-1.598065E-1,-2.8092148E-2,-3.8719648E-1,-2.9216674E-1,-9.866245E-2,-1.3424332E-1,-7.283471E-2,-3.5902876E-2,-9.2635915E-2,1.1215334E-1,-7.659007E-2,-1.2401282E-1,-9.20234E-2,-9.899721E-2,-3.9298426E-2,1.8330624E-2,-1.456337E-1],"categories":[],"categories_nodes":[],"categories_segments":[],"categories_sizes":[],"default_left":[0,0,0,0,0,0,0,0,0,0,0,0,0,0,0,0,0,0,0,0,0,0,0,0,0],"id":45,"left_children":[1,3,5,7,-1,9,11,13,15,17,19,21,23,-1,-1,-1,-1,-1,-1,-1,-1,-1,-1,-1,-1],"loss_changes":[3.002922E0,1.3679619E0,2.1337662E0,1.2341042E0,0E0,2.055748E0,1.2045422E0,1.0031414E0,1.1588368E0,1.7074696E0,8.9431E-1,2.0938988E0,2.3691535E0,0E0,0E0,0E0,0E0,0E0,0E0,0E0,0E0,0E0,0E0,0E0,0E0],"parents":[2147483647,0,0,1,1,2,2,3,3,5,5,6,6,7,7,8,8,9,9,10,10,11,11,12,12],"right_children":[2,4,6,8,-1,10,12,14,16,18,20,22,24,-1,-1,-1,-1,-1,-1,-1,-1,-1,-1,-1,-1],"split_conditions":[1E0,1E0,2E0,2E0,-1.5129751E-1,3.3333335E-2,3E0,1.674E3,1.1674E4,1.1764706E-2,4.1336E4,1E0,1.0728E4,-1.3424332E-1,-7.283471E-2,-3.5902876E-2,-9.2635915E-2,1.1215334E-1,-7.659007E-2,-1.2401282E-1,-9.20234E-2,-9.899721E-2,-3.9298426E-2,1.8330624E-2,-1.456337E-1],"split_indices":[25,46,1,5,0,14,8,0,0,2,12,16,0,0,0,0,0,0,0,0,0,0,0,0,0],"split_type":[0,0,0,0,0,0,0,0,0,0,0,0,0,0,0,0,0,0,0,0,0,0,0,0,0],"sum_hessian":[1.3669978E3,4.8010873E2,8.868891E2,4.6273242E2,1.737631E1,5.0046066E2,3.8642844E2,2.637205E2,1.9901193E2,1.6651882E1,4.8380878E2,3.4956906E2,3.6859386E1,2.7728418E1,2.3599208E2,1.582011E2,4.0810837E1,5.7805552E0,1.0871327E1,3.6190442E2,1.2190434E2,2.822767E2,6.7292336E1,2.6680693E1,1.0178693E1],"tree_param":{"num_deleted":"0","num_feature":"64","num_nodes":"25","size_leaf_vector":"1"}},{"base_weights":[1.0674813E-2,1.6478226E-2,-2.332028E-1,8.93181E-2,-1.378289E-3,-4.7082332E-1,-1.7226957E-1,-1.522633E-1,1.130181E-1,-4.1872766E-2,4.9345605E-2,-1.7461564E-1,1.9854955E-1,-2.4775277E-1,8.991382E-2,-1.362783E-1,-7.956197E-3,-1.1004666E-2,4.7339965E-2,-8.553418E-3,-7.597576E-2,1.7268214E-2,-1.104465E-1,6.663917E-2,-8.824605E-2,-9.788211E-2,8.561121E-2],"categories":[],"categories_nodes":[],"categories_segments":[],"categories_sizes":[],"default_left":[0,0,0,0,0,0,0,0,0,0,0,0,0,0,0,0,0,0,0,0,0,0,0,0,0,0,0],"id":46,"left_children":[1,3,5,7,9,11,13,15,17,19,21,-1,-1,23,25,-1,-1,-1,-1,-1,-1,-1,-1,-1,-1,-1,-1],"loss_changes":[5.3355913E0,4.78727E0,1.1876464E0,4.1661634E0,6.0756235E0,2.5656545E0,1.433732E0,2.4625428E0,4.4335566E0,4.638171E0,4.524902E0,0E0,0E0,1.2785249E0,1.4497164E0,0E0,0E0,0E0,0E0,0E0,0E0,0E0,0E0,0E0,0E0,0E0,0E0],"parents":[2147483647,0,0,1,1,2,2,3,3,4,4,5,5,6,6,7,7,8,8,9,9,10,10,13,13,14,14],"right_children":[2,4,6,8,10,12,14,16,18,20,22,-1,-1,24,26,-1,-1,-1,-1,-1,-1,-1,-1,-1,-1,-1,-1],"split_conditions":[1E0,7.843138E-3,7.843138E-3,2E0,2E0,3.8E1,1E0,1E0,6.666667E-2,1E0,4.3333334E-1,-1.7461564E-1,1.9854955E-1,1E0,6.666667E-2,-1.362783E-1,-7.956197E-3,-1.1004666E-2,4.7339965E-2,-8.553418E-3,-7.597576E-2,1.7268214E-2,-1.104465E-1,6.663917E-2,-8.824605E-2,-9.788211E-2,8.561121E-2],"split_indices":[47,2,2,6,5,11,35,45,14,46,14,0,0,15,14,0,0,0,0,0,0,0,0,0,0,0,0],"split_type":[0,0,0,0,0,0,0,0,0,0,0,0,0,0,0,0,0,0,0,0,0,0,0,0,0,0,0],"sum_hessian":[3.7661619E3,3.6795347E3,8.66273E1,7.236474E2,2.9558872E3,1.6307253E1,7.0320045E1,6.41654E1,6.59482E2,1.6437803E3,1.3121069E3,1.52916975E1,1.0155554E0,5.464318E1,1.567686E1,1.8094643E1,4.607075E1,1.5189503E2,5.0758694E2,1.5471212E3,9.665906E1,1.2876324E3,